tree
version=v4
num_class=3
num_tree_per_iteration=3
label_index=0
max_feature_idx=9
objective=multiclass num_class:3
feature_names=duration director_facebook_likes gross budget cast_total_facebook_likes actor_1_facebook_likes actor_3_facebook_likes actor_2_facebook_likes facenumber_in_poster content_rating_R
feature_infos=[-3.9829362100833539:16.05089927530085] [-0.30339918476683558:8.0136153702223076] [-0.77976236180482472:11.455462970710515] [-26.154392329073715:11.584703138175472] [-0.53794362302866039:35.655524370440077] [-0.43943143834060522:42.223095195259447] [-0.3946528067071739:13.469390423109916] [-0.41358175788746709:33.554864576008526] [-0.74912038675921033:24.908737413680846] [0:1]
tree_sizes=3305 3325 3317 3423 3416 3386 3435 3428 3420 3417 3425 3413 3413 3430 3412 3419 3425 3405 3424 3418 3423 3422 3409 3424 3414 3428 3423 3430 3419 3413 3421 3404 3418 3429 3423 3422 3426 3411 3425 3434 3425 3420 3423 3421 3436 3428 3424 3397 3420 3424 3417 3425 3444 3446 3416 3444 3439 3413 3435 3442 3429 3421 3438 3414 3416 3442 3412 3436 3435 3388 3423 3426 3426 3422 3441 3423 3449 3441 3414 3433 3432 3403 3453 3443 3396 3430 3465 3413 3437 3438 3383 3434 3440 3420 3448 3431 3430 3437 3435 3401 3445 3438 3399 3430 3449 3374 3462 3422 3391 3449 3452 3424 3445 3444 3421 3452 3422 3412 3435 3433 3410 3454 3414 3386 3437 3422 3420 3420 3433 3385 3441 3419 3372 3424 3431 3447 3438 3454 3365 3423 3445 3407 3436 3423 3401 3440 3436 3387 3451 3411 3392 3426 3435 3384 3440 3438 3383 3448 3440 3414 3430 3401 3414 3410 3442 3390 3430 3459 3416 3446 3452 3426 3434 3412 3411 3441 3445 3395 3445 3404 3416 3448 3409 3408 3459 3403 3393 3452 3427 3410 3436 3409 3415 3453 3423 3430 3432 3454 3427 3446 3380 3408 3450 3403 3413 3442 3408 3422 3436 3416 3393 3435 3390 3392 3438 3442 3388 3428 3415 3414 3446 3414 3410 3440 3421 3417 3438 3397 3417 3420 3422 3418 3434 3415 3402 3459 3432 3424 3450 3428 3422 3451 3403 3399 3441 3418 3415 3440 3422 3405 3441 3400 3394 3428 3411 3426 3437 3425 3397 3424 3430 3403 3459 3412 3397 3444 3412 3409 3444 3416 3388 3435 3409 3432 3422 3426 3414 3434 3423 3412 3436 3436 3404 3440 3426 3421 3435 3433 3432 3438 3408 3398 3427 3429 3410 3432 3396 3436 3420 3431

Tree=0
num_leaves=31
num_cat=0
split_feature=0 4 3 8 2 7 7 2 9 3 4 0 0 0 1 9 0 8 8 3 3 6 3 8 2 5 5 1 1 5
split_gain=196.263 219.965 94.3848 75.2109 58.7462 48.1102 41.7797 57.962 39.6798 37.9306 46.1193 55.4224 36.3313 36.2704 31.1231 29.2565 28.23 33.1242 26.5013 27.3363 26.2223 23.1543 23.1318 29.2252 30.4898 33.0985 25.3 32.2149 23.1082 19.8527
threshold=0.30972192594895881 -0.41884227063965584 -0.14175244804703782 0.46758002091462153 1.4301731580549288 -0.16678854632116788 -0.25935432396099972 -0.53563618534625423 0.99524735170450629 -0.38618085628639337 -0.24339720591533234 -0.52471437720078773 -0.32762146687862231 -1.2782145670723963 -0.20537596487272083 0.50739629397191655 -0.96169013582578744 1.7021804636740516 3.5300187443954258 -0.3802962381642977 0.068917859229712705 -0.18463678319021656 -0.38753474532557936 0.46758002091462153 -0.55497504527900865 -0.38069660064729105 -0.39748028906756644 -0.29512017992056588 -0.29869728050006628 -0.37833376975350025
decision_type=2 2 2 2 2 2 2 2 2 2 2 2 2 2 2 2 2 2 2 2 2 2 2 2 2 2 2 2 2 2
left_child=1 16 3 5 8 6 7 -3 13 -8 11 -11 18 -4 -12 -9 -1 22 19 -5 21 -15 26 24 -24 28 27 -18 -26 -13
right_child=-2 2 4 12 -6 -7 9 15 -10 10 14 29 -14 20 -16 -17 17 -19 -20 -21 -22 -23 23 -25 25 -27 -28 -29 -30 -31
leaf_value=-1.1517067512088264 -1.1556155459971 -1.1639969040527252 -1.1895213795772006 -1.1286122886681098 -1.1603769945504627 -1.1790142987183612 -1.1582761542143283 -1.1057820999888646 -1.0692005239622275 -0.9758109857365137 -1.1466892117450329 -1.1319456220014432 -1.0869843816913656 -1.0461929338294 -1.0093815194373406 -1.007898002953824 -1.0238550071147117 -1.1824832564100454 -1.1405477725390776 -0.95399690405272519 -1.0285979414658142 -0.96232362887429534 -1.1308040694900277 -1.0368475827857568 -1.1177134122636154 -1.1575596570891624 -1.1746539553347763 -1.1360295072111561 -1.0658830775806898 -1.0450577862984416
leaf_weight=204.66667276620865 511.66668191552162 138.66667079925537 11.000000327825544 10.000000298023222 34.000001013278961 66.333335310220718 39.666667848825455 88.333335965871811 153.00000455975533 102.33333638310432 69.333335399627686 42.00000125169754 57.333335041999817 41.333334565162659 21.666667312383652 46.666668057441711 34.333334356546402 62.000001847743988 10.333333641290663 86.666669249534607 232.33334025740623 161.66667148470879 292.00000870227814 68.000002026557922 118.66667020320892 63.333335220813751 96.000002861022949 100.66666966676712 312.66667598485947 70.333335429430008
leaf_count=614 1535 416 33 30 102 199 119 265 459 307 208 126 172 124 65 140 103 186 31 260 697 485 876 204 356 190 288 302 938 211
internal_value=-1.09861 -1.08833 -1.06173 -1.08351 -1.03251 -1.09808 -1.0894 -1.11859 -1.02525 -1.06628 -1.05434 -1.02905 -1.02275 -1.01019 -1.114 -1.07195 -1.11749 -1.11139 -0.988332 -0.972061 -1.00566 -0.9794 -1.10733 -1.09974 -1.10518 -1.09005 -1.13541 -1.1075 -1.08014 -1.07754
internal_weight=0 2835.33 1483 849.667 633.333 685.333 619 273.667 599.333 345.333 305.667 214.667 164.333 446.333 91 135 1352.33 1147.67 107 96.6667 435.333 203 1085.67 854.667 786.667 494.667 231 135 431.333 112.333
internal_count=10041 8506 4449 2549 1900 2056 1857 821 1798 1036 917 644 493 1339 273 405 4057 3443 321 290 1306 609 3257 2564 2360 1484 693 405 1294 337
is_linear=0
shrinkage=1


Tree=1
num_leaves=31
num_cat=0
split_feature=4 0 2 2 6 3 3 9 1 1 0 8 8 1 1 2 9 1 5 8 0 2 2 5 3 5 2 8 9 7
split_gain=891.493 403.728 196.133 138.562 134.067 88.8197 87.855 131.961 82.6524 81.5563 71.7736 71.6415 64.2183 63.5063 69.9419 63.0376 105.592 101.704 66.0385 60.139 49.8482 53.1665 48.7179 48.0621 46.4104 42.0778 50.0251 40.538 40.1124 51.596
threshold=-0.36442409290745897 -0.36589727135332473 -0.75570428546806878 0.0010688046086869362 -0.37705867753263383 -0.10644160244821803 -0.16574719491504997 0.24473780457647595 -0.24733677508459537 -0.23896368435054441 -0.80275792962198989 1.092668728143924 -0.13855726297468204 -0.30159008334435944 1.0000000180025095e-35 -0.31910438295415705 0.99524735170450629 -0.27106792442709288 -0.40751445707441353 -0.47924948509570203 -0.41136374320538255 -0.36321691881737123 -0.52476423421168616 -0.39098687266394666 -0.32589955065530074 -0.4165153448433157 7.2239890683803182e-06 0.37380837544047835 0.99524735170450629 -0.32285084933505087
decision_type=2 2 2 2 2 2 2 2 2 2 2 2 2 2 2 2 2 2 2 2 2 2 2 2 2 2 2 2 2 2
left_child=1 2 -1 4 -4 13 7 9 11 12 -7 25 -2 -6 15 16 18 -18 -15 -12 21 -14 -16 -20 -19 -3 28 -21 29 -27
right_child=6 8 3 -5 5 10 -8 -9 -10 -11 19 -13 20 14 22 -17 17 24 23 27 -22 -23 -24 -25 -26 26 -28 -29 -30 -31
leaf_value=-1.1737066282907513 -0.99258819228256756 -1.1986122886681099 -1.1746122886681098 -1.1986122886681099 -1.1004641405199616 -1.162684144955535 -1.190402641172748 -1.197576019238058 -1.1586539119771628 -1.1986122886681099 -1.1936942558812245 -0.98215659246557818 -1.146643784731102 -1.1639969040527252 -0.96177018340495191 -0.95895276786104799 -1.1912952154973782 -1.1892372886681097 -0.92575514581096696 -0.99403397541509775 -1.1986122886681099 -0.99388255893838007 -1.1284368500716186 -1.0222857580558649 -0.95818675675321618 -1.0030041805600016 -1.1986122886681099 -1.1707053119239237 -1.1328879070426681 -1.1074034974593185
leaf_weight=88.333335965871811 83.000002473592758 44.000001311302185 50.000001490116119 42.00000125169754 54.000001609325409 55.666668325662613 718.66668808460236 193.00000575184822 320.3333428800106 54.33333495259285 20.333333939313889 52.666668236255646 42.333334594964981 17.333333849906921 25.3333340883255 528.6666824221611 54.666668295860291 10.666666984558104 140.00000417232513 138.33333745598793 39.666667848825455 49.333334803581238 57.000001698732376 81.666669100522995 47.000001400709152 98.666669607162476 40.333334535360336 14.333333760499952 94.333336144685745 91.000002712011337
leaf_count=265 249 132 150 126 162 167 2156 579 961 163 61 158 127 52 76 1586 164 32 420 415 119 148 171 245 141 296 121 43 283 273
internal_value=-1.09861 -1.06052 -1.02939 -1.01985 -1.01406 -1.00761 -1.16854 -1.1345 -1.12037 -1.08918 -1.06392 -1.09125 -1.06144 -0.994939 -0.989018 -0.980771 -1.0136 -1.09357 -0.976018 -1.03214 -1.10496 -1.06443 -1.07715 -0.961319 -1.00092 -1.10685 -1.0944 -1.01062 -1.0796 -1.05309
internal_weight=0 2166.67 1425.33 1337 1295 1245 1180.33 461.667 741.333 268.667 228.667 421 214.333 1016.33 962.333 880 351.333 112.333 239 173 131.333 91.6667 82.3333 221.667 57.6667 368.333 324.333 152.667 284 189.667
internal_count=10041 6500 4276 4011 3885 3735 3541 1385 2224 806 686 1263 643 3049 2887 2640 1054 337 717 519 394 275 247 665 173 1105 973 458 852 569
is_linear=0
shrinkage=1


Tree=2
num_leaves=31
num_cat=0
split_feature=0 5 1 7 5 0 2 2 9 0 2 8 8 1 2 2 0 7 9 5 9 5 7 7 3 0 6 0 1 2
split_gain=1131.05 181.563 177.965 136.436 130.953 101.732 77.3166 77.5454 58.7803 56.5604 50.329 49.1219 40.5044 38.708 41.2994 35.8616 34.8182 37.501 34.7223 32.8466 29.3006 26.8762 25.4002 25.0009 23.0614 22.2229 21.5268 21.2529 21.1241 19.2187
threshold=-0.20712533901824351 -0.23988995788035455 1.0000000180025095e-35 -0.39022679366308188 0.09159186674603649 -1.871036819036888 -0.77247494678700124 0.11337839146974149 0.99524735170450629 0.071220296491770071 -0.48222658802925272 -0.13855726297468204 -0.73451436192826269 1.0000000180025095e-35 0.93755392424430017 -0.43553036277068796 1.4765758767559261 -0.17794752997220895 0.99524735170450629 -0.37286815643874094 0.99524735170450629 -0.42691571736451378 -0.41122624729481594 -0.36092819022476347 -0.39951470837632896 -0.52549114199725466 0.0068214285476281651 -0.20668002213421696 -0.30267198446845811 -0.62655421759661156
decision_type=2 2 2 2 2 2 2 2 2 2 2 2 2 2 2 2 2 2 2 2 2 2 2 2 2 2 2 2 2 2
left_child=1 3 4 10 8 -5 -7 20 16 23 -1 12 15 14 18 29 17 21 -3 -9 28 -2 -12 -10 -22 -24 -26 -23 -8 -6
right_child=2 13 -4 5 11 6 7 19 9 -11 22 -13 -14 -15 -16 -17 -18 -19 -20 -21 24 27 25 -25 26 -27 -28 -29 -30 -31
leaf_value=-0.96002961150275545 -0.97755965708916237 -1.1178430578988789 -0.93404173652087052 -0.95277895533477641 -0.98043047048629162 -1.045082876903404 -1.0804304704862917 -1.0193915094473305 -0.91930194384052355 -0.96411861778203378 -0.91289800295382406 -0.93983850431293003 -1.1986122886681099 -0.98105503675971284 -0.93322767328349443 -0.9467038917215449 -0.93978875925634509 -0.96874215879797987 -1.0378527949972236 -1.1611122886681098 -1.0100408600966813 -0.94476613482195593 -1.1321174433072851 -1.0893005477774216 -1.1561204853894214 -0.95861228866810977 -1.0486122886681097 -1.1032333607568343 -1.1793919804178832 -1.1445139280123722
leaf_weight=42.333334594964981 19.000000566244125 173.33333849906921 217.3333398103714 24.000000715255737 11.000000327825548 56.666668355464935 22.000000655651093 51.333334863185883 9.6666669547557813 105.33333647251129 7.0000002086162558 157.6666713654995 12.666667044162748 43.666667968034744 17.333333849906921 43.666667968034744 17.000000506639481 25.666667431592941 79.000002354383469 24.000000715255737 11.666667014360426 8.6666669249534589 64.666668593883514 82.333335787057877 508.33334848284721 8.3333335816860181 19.333333909511566 360.66667741537094 1103.0000328719616 20.333333939313889
leaf_count=127 57 520 652 72 33 170 66 154 29 316 21 473 38 131 52 131 51 77 237 72 35 26 194 247 1525 25 58 1082 3309 61
internal_value=-1.09861 -1.13904 -1.01502 -1.15043 -1.03516 -1.1573 -1.16003 -1.16378 -1.05935 -1.01415 -1.0482 -0.973205 -1.03321 -1.0684 -1.08254 -1.00528 -1.08005 -1.08581 -1.0928 -1.06454 -1.16827 -1.09355 -1.09486 -1.07144 -1.14911 -1.11231 -1.15218 -1.09951 -1.17746 -1.08691
internal_weight=0 2256 1091 1942.67 873.667 1820.33 1796.33 1739.67 628.333 197.333 122.333 245.333 87.6667 313.333 269.667 75 431 414 252.333 75.3333 1664.33 388.333 80 92 539.333 73 527.667 369.333 1125 31.3333
internal_count=10041 6768 3273 5828 2621 5461 5389 5219 1885 592 367 736 263 940 809 225 1293 1242 757 226 4993 1165 240 276 1618 219 1583 1108 3375 94
is_linear=0
shrinkage=1


Tree=3
num_leaves=31
num_cat=0
split_feature=0 4 3 8 2 0 2 3 7 4 4 1 1 0 8 7 7 0 9 6 9 0 5 6 3 8 2 5 5 1
split_gain=164.98 177.905 74.4808 66.3773 46.1468 39.6833 30.0998 28.0206 32.4036 40.5897 27.0004 26.6846 26.6132 24.4352 28.6484 23.6259 23.0986 21.7921 21.3073 21.0331 21.8529 21.2007 35.1751 19.7278 19.688 24.3983 26.7049 28.9703 23.04 28.356
threshold=0.30972192594895881 -0.41884227063965584 -0.16565457165279387 0.46758002091462153 1.4301731580549288 -0.48722635116697049 -0.7511458470280975 -0.38393879727296432 -0.26258023137806524 -0.24339720591533234 -0.39676242061173134 1.0000000180025095e-35 -0.28079107727682046 -0.96169013582578744 1.7021804636740516 -0.16678854632116788 -0.17306064079961711 -0.32762146687862231 0.99524735170450629 -0.052479449435999866 0.99524735170450629 -0.61643287765150678 -0.37915262908349306 4.7282552447314581 -0.38753474532557936 0.46758002091462153 -0.55497504527900865 -0.37682692866867112 -0.39590963233562332 -0.28079107727682046
decision_type=2 2 2 2 2 2 2 2 2 2 2 2 2 2 2 2 2 2 2 2 2 2 2 2 2 2 2 2 2 2
left_child=1 13 3 5 6 7 10 -3 18 -10 -4 15 -11 -1 24 19 -7 -5 -9 21 -21 22 -8 -2 28 26 -26 -28 29 -15
right_child=23 2 4 17 -6 16 11 8 9 12 -12 -13 -14 14 -16 -17 -18 -19 -20 20 -22 -23 -24 -25 25 -27 27 -29 -30 -31
leaf_value=-0.049412128676399852 -0.057307946652683607 -0.054296477088236608 0.13010363330636163 0.095865462171982149 -0.058130090535615291 -0.015677667701749446 -0.029079757471826173 -0.031905690684843273 0.092968020249321062 -0.067562309332282092 -0.078134238306663675 0.0052000090452307317 0.076964932877602144 0.047887352846480373 -0.079173797303190518 0.02528248927215844 -0.090705473517584415 0.017244822955718869 0.081314930034159752 0.12581604046709796 0.019456281375778373 0.084104877614127299 0.09430357822418875 0.040046824659009994 -0.03001583688303491 0.056047225149964498 0.015910945385029296 -0.068459757293636708 -0.075478641326799226 -0.044139862040629987
leaf_weight=199.20352992415428 474.82905754446983 41.09813329577446 8.168578088283537 106.91067156195641 33.272698253393173 273.72420588135719 50.38860222697258 84.55097496509552 120.12796148657799 32.912426173686981 26.191101044416428 62.086093634366989 20.788255393505096 53.734509587287903 59.207654982805252 84.13772264122963 48.269823908805847 52.601669460535049 20.688999533653259 143.9420450925827 22.312077164649963 228.89455151557922 42.674251794815063 21.768691301345825 287.98768702149391 69.43205326795578 450.18993920087814 44.742373555898666 83.993001192808151 88.835693597793579
leaf_count=614 1468 126 24 308 103 823 148 259 348 101 78 185 62 160 186 246 150 157 61 413 66 668 123 67 876 204 1346 138 261 272
internal_value=0 0.00943291 0.0330315 0.0122045 0.0568133 -0.00213673 0.0625317 0.022793 0.0341459 0.0606597 -0.0286283 0.0674688 -0.0116139 -0.0171022 -0.0114471 0.0742234 -0.026925 0.0699391 -0.00964779 0.0826579 0.111542 0.0677425 0.027498 -0.0530403 -0.00773044 -0.000765907 -0.00580429 0.00828375 -0.0339317 -0.00945493
internal_weight=0 2841.07 1503.74 801.673 702.068 642.161 668.795 320.167 279.069 173.829 34.3597 634.435 53.7007 1337.33 1138.12 572.349 321.994 159.512 105.24 488.212 166.254 321.957 93.0629 496.598 1078.92 852.352 782.92 494.932 226.563 142.57
internal_count=10041 8506 4449 2395 2054 1930 1951 957 831 511 102 1849 163 4057 3443 1664 973 465 320 1418 479 939 271 1535 3257 2564 2360 1484 693 432
is_linear=0
shrinkage=0.1


Tree=4
num_leaves=31
num_cat=0
split_feature=4 0 2 6 2 3 9 1 1 3 8 8 3 6 1 1 2 9 1 6 1 4 3 3 3 5 6 8 8 5
split_gain=740.627 317.794 159.567 112.154 108.219 78.9918 115.324 70.6418 69.5429 62.332 59.2508 58.5943 55.3056 53.5287 49.5873 51.8563 47.3647 83.3862 88.7896 45.9267 45.3245 42.3661 41.9652 39.3261 37.3686 39.7577 36.2986 35.9868 56.663 34.6829
threshold=-0.36442409290745897 -0.36589727135332473 -0.76322690849167774 -0.36558771484172231 0.0010688046086869362 -0.16574719491504997 0.24473780457647595 -0.24733677508459537 -0.23896368435054441 -0.10644160244821803 0.48228018264468592 -0.47924948509570203 0.074204890465265974 0.046755933280265845 -0.30180793721146654 1.0000000180025095e-35 -0.31910438295415705 0.99524735170450629 -0.27337189323342831 -0.28493416240578012 -0.29398612947378705 -0.4368673623324642 -0.27730512514973088 0.068917859229712705 -0.39289470674146854 -0.38596798157670831 -0.17873992934065669 -0.21599072032994884 -0.74637142918756616 -0.4165153448433157
decision_type=2 2 2 2 2 2 2 2 2 2 2 2 2 2 2 2 2 2 2 2 2 2 2 2 2 2 2 2 2 2
left_child=1 2 -1 -4 9 6 8 10 13 14 29 -11 21 20 -5 16 17 19 -19 -16 -2 23 -20 -13 -17 -26 -22 28 -9 -3
right_child=5 7 3 4 -6 -7 -8 27 -10 11 -12 12 -14 -15 15 24 -18 18 22 -21 26 -23 -24 -25 25 -27 -28 -29 -30 -31
leaf_value=-0.082107844524911391 -0.010905320289532037 -0.095630702328740158 -0.040930282809699708 -0.0085709039960093197 -0.096115759812374468 -0.087125086065698729 -0.094469437536033915 -0.037605997888872075 -0.095810883950974382 -0.094374449277115857 0.092703057881846865 0.11011547219641547 0.12553630491263373 -0.094840566986072072 0.023107875071687219 -0.09621633965567486 0.12123401080637895 -0.0914260059685022 -0.030690487745015784 0.12882964476962841 -0.099844208470574597 -0.060827356750207479 0.1417023925076141 -0.037048558950622416 0.10025154492781092 -0.099434060187580914 0.10646959464926016 -0.07839559758658099 0.17777907169664675 0.0017131030208878601
leaf_weight=74.321063011884689 70.650809586048126 41.453009009361267 88.08138582110405 47.861094325780869 35.672070145606995 683.46988919377327 183.05896526575089 78.440013080835342 51.702428251504898 31.151961416006088 67.258908867835999 51.898251265287399 68.742709964513779 28.373885005712509 51.715158671140671 20.857045114040375 543.50373193621635 52.598810255527496 21.182348310947418 199.9950484931469 9.2515417337417585 47.274137586355209 42.355214774608612 27.93100380897522 48.174449950456619 12.572988599538801 108.9982613325119 217.93373829126358 14.467035204172133 312.73768171668053
leaf_count=231 210 131 266 143 112 2156 579 242 163 96 196 151 199 87 150 62 1546 163 63 570 28 141 121 83 141 38 318 675 44 936
internal_value=0 0.0337818 0.0606558 0.0682806 0.0756604 -0.0656753 -0.0332436 -0.0200143 0.00842514 0.0804936 0.00665958 0.0330143 0.0532773 0.033229 0.0908486 0.0956407 0.102479 0.074768 0.00467416 0.107109 0.0524658 0.0141966 0.0842295 0.0586251 0.0192709 0.0589223 0.0903282 -0.0561796 -0.00406728 -0.00967961
internal_weight=0 2198.18 1465.89 1391.57 1303.49 1135.51 452.036 732.29 268.977 1267.81 421.45 226.998 195.846 217.274 1040.82 992.955 911.35 367.847 116.136 251.71 188.901 127.103 63.5376 79.8293 81.6045 60.7474 118.25 310.841 92.907 354.191
internal_count=10041 6500 4276 4045 3779 3541 1385 2224 806 3667 1263 670 574 643 2997 2854 2613 1067 347 720 556 375 184 234 241 179 346 961 286 1067
is_linear=0
shrinkage=0.1


Tree=5
num_leaves=31
num_cat=0
split_feature=0 5 1 7 5 0 2 2 5 2 9 0 8 8 7 0 8 7 0 6 9 2 9 5 3 7 2 3 4 0
split_gain=908.615 152.209 131.827 115.348 98.7948 83.4779 65.0752 66.4587 47.1229 39.0878 37.88 40.74 36.4816 34.3691 33.4833 27.646 26.5984 25.5296 27.0823 25.3111 24.8508 25.2699 24.7413 24.1145 20.8931 20.2289 20.1421 49.537 19.4998 19.3899
threshold=-0.20712533901824351 -0.23988995788035455 1.0000000180025095e-35 -0.39022679366308188 0.09159186674603649 -1.871036819036888 -0.77247494678700124 0.033120522075672669 -0.4260835694422011 -0.48222658802925272 0.99524735170450629 0.071220296491770071 -0.13855726297468204 -0.73451436192826269 -0.00073437378103433332 0.14898334075459388 -0.087736023363295376 -0.17794752997220895 1.4765758767559261 -0.25766713778760714 0.99524735170450629 0.90823982309431683 0.99524735170450629 -0.37286815643874094 -0.10644160244821803 -0.41122624729481594 -0.017573817794556263 -0.39234357832444672 -0.36247047823555911 -0.20668002213421696
decision_type=2 2 2 2 2 2 2 2 2 2 2 2 2 2 2 2 2 2 2 2 2 2 2 2 2 2 2 2 2 2
left_child=1 3 4 9 8 -5 -7 22 -2 -1 17 29 13 15 19 24 -16 18 -10 -3 21 -21 -8 -9 -6 -11 27 -24 -28 -12
right_child=2 14 -4 5 12 6 7 23 10 25 11 -13 -14 -15 16 -17 -18 -19 -20 20 -22 -23 26 -25 -26 -27 28 -29 -30 -31
leaf_value=0.11978779511895901 0.13499557732832099 0.093948169997758957 0.14022850371776982 0.12533398222012801 -0.033279586073509164 0.046632536338087616 -0.074597400798170774 0.05117279427413654 -0.0016316362493724831 0.15987801694823081 0.1783248539188057 0.10962117442974267 0.13543605534429179 -0.098074901357044331 0.13271847966059935 0.13576164417294975 0.002624433496358802 0.10768411919597459 0.1317009129518138 -0.033893732898892102 0.051801231966241527 0.134252000388458 0.16087263088489839 -0.060666847568229779 0.135261962639424 -0.013096118933425969 -0.076977711599422072 -0.039460341628381725 0.057254919111666927 0.002338591879422472
leaf_weight=44.613879024982452 43.493630260229111 31.020478755235672 231.36921957135201 25.374024122953415 25.097274541854858 58.15394389629364 1063.754391759634 69.011774241924286 369.63099524378777 7.4545622169971457 6.7783408164978018 96.640464663505554 167.58073735237122 12.396732985973356 45.657386034727097 42.34789651632309 23.965148091316223 25.235642671585083 15.888796120882033 146.95795196294785 60.503521889448166 9.5165998637676221 12.913669288158415 26.752776026725769 10.404202073812483 72.666434228420258 216.52733269333839 279.3678240776062 11.391523122787474 81.96930781006813
leaf_count=127 124 91 652 72 75 170 3336 203 1106 21 20 275 473 38 133 120 71 72 45 442 176 27 38 82 30 219 670 856 34 243
internal_value=0 -0.0373879 0.0729241 -0.0481627 0.0555728 -0.0547369 -0.0573661 -0.0609666 0.0345081 0.0447699 0.0271767 0.0646982 0.107832 0.0565728 0.0266595 0.0811989 0.0879381 0.010242 0.00386353 0.00945628 -0.00262319 -0.0236673 -0.0658575 0.0199293 0.0161139 0.00299762 -0.0479855 -0.0306092 -0.0702687 0.01578
internal_weight=0 2205.6 1128.83 1887.98 897.464 1763.25 1737.87 1679.72 639.637 124.735 596.144 185.388 257.827 90.2461 317.621 77.8494 69.6225 410.755 385.52 247.999 216.978 156.475 1583.95 95.7646 35.5015 80.121 520.2 292.281 227.919 88.7476
internal_count=10041 6768 3273 5828 2621 5461 5389 5219 1885 367 1761 538 736 263 940 225 204 1223 1151 736 645 469 4934 285 105 240 1598 894 704 263
is_linear=0
shrinkage=0.1


Tree=6
num_leaves=31
num_cat=0
split_feature=0 4 3 8 2 7 7 2 2 0 9 0 0 0 8 8 9 3 0 2 3 1 6 3 8 2 5 5 1 1
split_gain=137.826 145.271 60.1917 49.5619 39.1884 37.5498 30.5051 50.0153 30.402 37.5558 25.7715 25.9555 22.3199 20.7959 24.8958 20.5965 20.2883 19.884 17.6934 18.0497 17.6738 17.8079 22.9083 17.2954 21.0638 23.5439 25.1305 20.8599 25.2049 19.2543
threshold=0.30972192594895881 -0.41884227063965584 -0.14175244804703782 0.46758002091462153 1.6057768541111075 -0.16678854632116788 -0.25935432396099972 -0.53563618534625423 -0.36321691881737123 -0.13082309452686328 0.99524735170450629 -1.2782145670723963 -0.32762146687862231 -0.96169013582578744 1.7021804636740516 3.5300187443954258 0.50739629397191655 -0.3802962381642977 0.031704456097799684 -0.73926285001579728 -0.26150034200910161 1.0000000180025095e-35 4.7282552447314581 -0.38753474532557936 0.46758002091462153 -0.55497504527900865 -0.38069660064729105 -0.39590963233562332 -0.29512017992056588 -0.29869728050006628
decision_type=2 2 2 2 2 2 2 2 2 2 2 2 2 2 2 2 2 2 2 2 2 2 2 2 2 2 2 2 2 2
left_child=1 13 3 5 10 6 7 -3 9 -8 11 -4 15 -1 23 17 -9 -5 19 -12 -2 22 -22 27 25 -25 29 28 -15 -27
right_child=20 2 4 12 -6 -7 8 16 -10 -11 18 -13 -14 14 -16 -17 -18 -19 -20 -21 21 -23 -24 24 -26 26 -28 -29 -30 -31
leaf_value=-0.045791744774367954 -0.086595692740509989 -0.061092930019135828 -0.086617355548928632 -0.033400847530468541 -0.070478646524630081 -0.073947128137304211 0.074523455701419758 -0.0038853529216866345 -0.003392848232296645 -0.053427925890452144 -0.055594059225316655 0.072387364678502097 0.0095686179281243514 0.061802197846166307 -0.075094264163525395 -0.046914099931779557 0.076758134292054622 0.11372825484454632 -0.053644143844672615 0.051833206603432685 -0.032238273453503878 -0.072148943867409096 0.09560099914124677 -0.028068784967574697 0.052004847361394616 -0.018080743061983439 -0.052556439202111949 -0.072183272578838178 -0.033865548356855228 0.029265964153111515
leaf_weight=193.38191282749176 99.97662615776062 133.5956848859787 10.496445029973982 10.182378917932509 24.922954440116882 62.040768086910248 154.48109814524651 86.646663963794708 169.33744883537292 26.940117448568344 18.133281469345093 468.02811878919601 57.796907246112823 37.450901508331299 56.336824387311935 10.613568276166914 48.748093754053116 93.832933157682419 25.693604737520218 113.75631958246231 250.27035528421402 115.33918577432632 14.848979502916334 284.10112696886063 70.36908546090126 117.83556386828423 60.105625927448273 80.99380025267601 104.05864506959915 316.83347797393799
leaf_count=614 321 416 33 30 80 199 448 265 505 83 55 1326 172 109 186 31 140 260 77 329 795 374 45 876 204 356 190 261 323 938
internal_value=0 0.00873922 0.0298725 0.0123396 0.0525294 0.000226237 0.00765146 -0.0176831 0.0270801 0.0555233 0.0573489 0.0688996 0.0602373 -0.0154931 -0.0102992 0.0857849 0.0251499 0.0993253 0.0222736 0.0370632 -0.0491801 -0.0393481 -0.0250782 -0.00689317 -0.000390812 -0.0051246 0.00805002 -0.0317112 -0.00854681 0.0164306
internal_weight=0 2836.71 1515.25 854.216 661.031 681.79 619.749 268.99 350.759 181.421 636.108 478.525 172.426 1321.47 1128.09 114.629 135.395 104.015 157.583 131.89 480.435 380.459 265.119 1071.75 849.245 778.876 494.775 222.503 141.51 434.669
internal_count=10041 8506 4449 2549 1900 2056 1857 821 1036 531 1820 1359 493 4057 3443 321 405 290 461 384 1535 1214 840 3257 2564 2360 1484 693 432 1294
is_linear=0
shrinkage=0.1


Tree=7
num_leaves=31
num_cat=0
split_feature=4 0 2 7 2 3 9 2 9 1 1 1 6 0 7 1 3 2 1 9 0 1 2 6 7 0 2 6 8 3
split_gain=617.472 252.979 130.424 95.7263 89.4926 71.0621 100.006 63.2859 75.8909 60.0308 56.3647 53.5066 53.4283 49.5889 49.1765 48.7805 49.3578 46.8414 43.5007 40.8515 48.0688 40.8361 52.311 38.2779 38.1085 34.5144 33.4779 33.0168 32.9163 32.8794
threshold=-0.36442409290745897 -0.36589727135332473 -0.76747796704925519 -0.38648200696829638 0.0010688046086869362 -0.14297512902346859 0.50739629397191655 7.2239890683803182e-06 0.99524735170450629 -0.23896368435054441 -0.30195097750683425 -0.027878261891584748 0.046755933280265845 -0.1710432636155762 -0.32358244451692858 1.0000000180025095e-35 -0.38753474532557936 -0.028052093971725752 -0.29217915457982263 0.99524735170450629 -0.93022443260802601 -0.1428871054416877 -0.023620262249275346 -0.31532500160724747 -0.3114232699873653 0.14898334075459388 -0.76565770634815589 -0.29938536832633367 0.48228018264468592 -0.2263046305189875
decision_type=2 2 2 2 2 2 2 2 2 2 2 2 2 2 2 2 2 2 2 2 2 2 2 2 2 2 2 2 2 2
left_child=1 2 -1 27 10 6 9 8 11 12 -5 14 18 24 26 16 17 -12 -2 23 -21 22 -22 -18 -10 -20 -3 -4 -16 -26
right_child=5 7 3 4 -6 -7 -8 -9 13 -11 15 -13 -14 -15 28 -17 19 -19 25 20 21 -23 -24 -25 29 -27 -28 -29 -30 -31
leaf_value=-0.087290061301902588 -0.012951639120549427 -0.091602664604180928 -0.055588678464481324 -0.026353198005114004 -0.092924923964951583 -0.085066233387081955 -0.090964293137720947 -0.095085210304191564 -0.097527958915135909 -0.090892770025039232 -0.096542050232974394 -0.082917427269703692 -0.091848296688219894 -0.093035471340518816 -0.037784414129606494 0.013768694165067406 0.023087371952848344 0.1339814179209009 0.09526839208162613 0.12643901086356216 -0.051508450603444722 0.11616282182094828 0.064577830617634432 0.094486559975232476 0.092322954773773003 -0.098090203956384875 0.072122754925824831 0.093974614537868761 0.075573613821246763 -0.073729894815681235
leaf_weight=62.896048605442047 84.686057418584824 13.316622197628019 89.660992354154587 56.317895799875259 33.988344311714172 598.16228345036507 187.6665997505188 93.819474458694458 25.766178667545319 56.471229612827301 9.1942723989486677 46.277265787124634 34.497854977846146 132.4278666973114 116.3539460003376 114.40354964137077 86.669693887233734 213.41777229309082 115.43356740474701 48.140572100877762 98.41929766535759 33.083498150110245 64.099482148885727 561.81768575310707 44.31884241104126 10.033978044986723 200.93438312411308 17.668554276227951 32.847092121839523 16.313509047031403
leaf_count=205 253 41 273 168 112 2000 628 300 80 187 29 151 111 427 352 338 244 585 331 134 300 93 180 1565 134 31 593 50 96 50
internal_value=0 0.0300909 0.053639 0.0598511 0.0672381 -0.0619528 -0.0336674 -0.0184731 -0.00703778 0.00204142 0.0714725 0.0183558 0.0234928 -0.0545846 0.0312506 0.0759544 0.0823358 0.12446 0.0424266 0.0718257 0.0369237 0.0148927 -0.00572254 0.0849441 0.00435112 0.079805 0.0619465 -0.0309676 -0.0128283 0.0476454
internal_weight=0 2212.15 1489.78 1426.88 1319.55 1086.95 488.789 722.375 628.556 301.123 1285.56 409.729 244.651 218.826 363.452 1229.25 1114.84 222.612 210.154 892.23 243.743 195.602 162.519 648.487 86.3985 125.468 214.251 107.33 149.201 60.6324
internal_count=10041 6500 4276 4071 3748 3541 1541 2224 1924 913 3636 1233 726 691 1082 3468 3130 614 615 2516 707 573 480 1809 264 362 634 323 448 184
is_linear=0
shrinkage=0.1


Tree=8
num_leaves=31
num_cat=0
split_feature=0 2 5 2 1 1 0 6 7 5 5 8 2 8 2 0 9 0 2 0 0 3 5 0 3 0 1 7 2 5
split_gain=742.643 118.736 116.557 110.789 101.995 66.7397 59.3732 52.0281 46.101 41.3502 30.6753 28.451 39.7325 37.4025 25.9249 25.7158 35.4466 32.3776 25.0866 24.1354 33.0022 23.8854 21.0202 20.604 20.8721 20.5557 18.6342 18.2608 17.8584 17.6397
threshold=-0.24651813352666682 -0.77247494678700124 -0.23988995788035455 0.077415905745205946 1.0000000180025095e-35 1.0000000180025095e-35 -1.5229690295880429 -0.36938968485700513 -0.00073437378103433332 -0.4260835694422011 -0.37385444766717185 -0.13855726297468204 -0.50197511512973547 -0.73451436192826269 1.366067261264915 0.071220296491770071 0.99524735170450629 -0.24632559041731367 0.24923792121331043 -0.20712533901824351 -0.20668002213421696 -0.081798956007948606 -0.23988995788035455 -0.1710432636155762 -0.16565457165279387 -0.445295970545942 -0.30267198446845811 -0.27657693914236575 -0.46048834148480317 -0.41288663044413543
decision_type=2 2 2 2 2 2 2 2 2 2 2 2 2 2 2 2 2 2 2 2 2 2 2 2 2 2 2 2 2 2
left_child=1 -1 5 4 7 9 -6 28 22 -2 25 12 -4 -14 21 17 18 -11 -17 -19 -21 -5 26 -22 -25 -8 -9 -23 -3 -27
right_child=2 3 11 14 6 -7 10 8 -10 15 -12 -13 13 -15 -16 16 -18 19 -20 20 23 27 -24 24 -26 29 -28 -29 -30 -31
leaf_value=0.071069912926293596 0.11582865874216595 0.12175668922026811 -0.0083340166180545655 0.10099034500923317 0.1504825742760694 0.10702522080893595 -0.044853763167306632 0.0070845946004316797 0.056534628100346651 0.12078010475176185 0.073324374728984856 0.11784467983643759 0.12263101077410384 -0.096205833020629794 0.13547915476276967 0.0032906299947337717 0.089975296608997446 -0.096908645614956074 0.095507460170658309 0.13794490627944986 -0.099925544715839296 0.092717127662641674 -0.028060120693495606 0.038933229325666341 -0.030237752289833587 0.19614416458504658 -0.068539965123337196 -0.022857815553879557 3.3483905556939531e-05 0.0024387136811139841
leaf_weight=97.658604383468628 46.544184446334839 17.296342581510544 49.448841601610184 29.647069990634918 29.199819833040237 117.25709119439125 109.41977256536484 33.388427138328552 33.076737344264984 19.052396714687347 39.676042586565018 319.09912323951721 84.903788059949875 8.6013878285884839 24.529525578022003 205.10826241970062 90.631212413311005 31.090420007705688 34.455520361661911 15.491214752197264 24.276621788740158 16.661666065454483 156.60548549890518 74.098776131868362 106.06636139750481 6.6956511139869717 1350.0395426154137 76.156951546669006 39.759475529193878 15.782575905323027
leaf_count=277 128 49 147 86 81 320 343 103 97 58 115 875 233 27 68 608 250 97 100 44 73 48 469 220 319 20 4391 227 120 48
internal_value=0 -0.0365693 0.0615877 -0.0418839 -0.0485898 0.0376115 0.0186638 -0.0568729 -0.0602752 0.0250279 -0.00377018 0.101236 0.0641621 0.102501 0.0416432 0.0179873 0.0367064 -0.00489864 0.0165538 -0.0144375 -0.00277914 0.0228481 -0.062784 -0.0134423 -0.00178893 -0.0269609 -0.0667148 -0.00211121 0.0369336 0.0601383
internal_weight=0 2075.59 1226.13 1977.94 1830.94 764.072 200.774 1630.17 1573.11 646.815 171.574 462.053 142.954 93.5052 146.995 600.271 330.195 270.076 239.564 251.023 219.933 122.466 1540.03 204.442 180.165 131.898 1383.43 92.8186 57.0558 22.4782
internal_count=10041 6542 3499 6265 5836 2217 607 5229 5060 1897 526 1282 407 260 429 1769 958 811 708 753 656 361 4963 612 539 411 4494 275 169 68
is_linear=0
shrinkage=0.1


Tree=9
num_leaves=31
num_cat=0
split_feature=0 4 3 8 0 2 3 9 7 9 6 2 0 2 4 0 8 2 7 3 3 7 1 1 6 1 1 1 3 3
split_gain=116.282 117.785 48.335 46.1768 33.1822 30.8153 26.2755 22.8256 22.5776 20.6333 21.2831 27.1816 20.6264 26.7884 20.1253 17.8008 22.4402 17.1743 19.4469 16.7841 16.5034 25.367 16.2695 16.0389 19.4782 16.4955 15.976 20.2566 15.5544 15.5228
threshold=0.30972192594895881 -0.41884227063965584 -0.16565457165279387 0.46758002091462153 -0.64395621475208853 1.6057768541111075 -0.39625011862100573 0.50739629397191655 -0.1832283627549238 0.99524735170450629 -0.18664947175900412 -0.27314485391441706 -0.63227470602001812 0.69220163106445642 -0.25924320574331322 -0.96169013582578744 1.7021804636740516 -0.73926285001579728 -0.17517837977961373 -0.26150034200910161 -0.40003195481859499 -0.38648200696829638 -0.28079107727682046 1.0000000180025095e-35 4.7282552447314581 -0.060224945458691038 -0.29797365583517094 -0.23896368435054441 -0.3802962381642977 -0.40473572541207742
decision_type=2 2 2 2 2 2 2 2 2 2 2 2 2 2 2 2 2 2 2 2 2 2 2 2 2 2 2 2 2 2
left_child=1 15 3 4 6 9 -3 26 -9 10 -4 -12 13 -13 -8 20 29 -11 -19 -2 21 -1 -16 24 25 -21 -6 -28 -5 -17
right_child=19 2 5 28 7 -7 14 8 -10 17 11 12 -14 -15 22 16 -18 18 -20 23 -22 -23 -24 -25 -26 -27 27 -29 -30 -31
leaf_value=0.11840032933756824 -0.083199293869404445 -0.095337446902332298 0.015187024083224549 -0.043291345153507792 0.022333907325998707 -0.066213589127862613 0.05822579098036277 0.023412182602744497 -0.072164360561212171 -0.059060466785887278 0.10227620279149086 -0.027511119396373046 0.066560371835411997 0.11482684541209676 -0.060375394238904471 -0.086921267735037361 -0.071963223684075109 0.050914474297049352 -0.03779121202364677 -0.035794420011335232 -0.055900856093434738 -0.058915685428461942 0.069050219205298191 -0.068154855046661689 0.087199021481981401 0.075851122012797645 -0.067388729603794315 0.0056932396711216757 0.066923355333683751 -0.0040236067964804067
leaf_weight=14.915062159299849 95.109342902898788 15.33675369620323 89.322169810533524 13.999488949775694 36.756234616041183 23.696110397577286 149.18225938081741 156.52570927143097 29.350281447172165 23.797306954860687 155.55583545565605 57.596737653017044 204.14886328577995 17.162050396203995 30.00962883234024 23.090376108884811 53.905075877904892 118.3985755443573 31.234034985303879 230.65348321199417 155.01983636617661 17.575302630662918 14.360218733549116 109.72663959860802 15.221326678991316 14.039266377687452 153.21220016479492 50.403961926698685 150.05678248405457 1039.0782155394554
leaf_count=47 321 49 257 42 112 80 440 460 94 75 428 166 570 48 94 74 186 337 93 750 509 58 42 374 45 45 484 155 423 3183
internal_value=0 0.00824499 0.0271584 0.0102225 -0.00199409 0.0459333 0.0306566 -0.017995 0.00832041 0.0497449 0.0596437 0.0687837 0.0501038 0.00516479 0.0406402 -0.0138099 -0.00902008 0.0198486 0.0323982 -0.045735 -0.0423191 0.0224832 -0.018487 -0.0360954 -0.022561 -0.0293887 -0.0383443 -0.0492977 0.0575184 -0.00582571
internal_weight=0 2823.69 1520.11 799.194 635.137 720.912 208.889 426.248 185.876 697.216 523.786 434.463 278.908 74.7588 193.552 1303.58 1116.07 173.43 149.633 464.75 187.51 32.4904 44.3698 369.641 259.914 244.693 240.372 203.616 164.056 1062.17
internal_count=10041 8506 4449 2395 1930 2054 625 1305 554 1974 1469 1212 784 214 576 4057 3443 505 430 1535 614 105 136 1214 840 795 751 639 465 3257
is_linear=0
shrinkage=0.1


Tree=10
num_leaves=31
num_cat=0
split_feature=4 0 2 7 2 3 9 2 9 1 6 1 1 0 0 7 1 7 6 8 0 3 8 8 1 2 2 9 1 6
split_gain=518.228 203.543 108.509 78.4536 73.9255 64.5944 90.223 56.5122 65.0985 52.861 46.3932 45.5887 45.083 44.3341 42.8537 41.1855 36.211 35.7767 29.6778 28.8453 28.819 28.7994 41.9306 43.1335 30.5959 32.3965 31.1542 56.639 70.5017 35.2878
threshold=-0.36442409290745897 -0.36589727135332473 -0.76322690849167774 -0.38648200696829638 0.0010688046086869362 -0.14297512902346859 0.50739629397191655 7.2239890683803182e-06 0.99524735170450629 -0.23896368435054441 0.046755933280265845 -0.30195097750683425 -0.027878261891584748 -0.16658704507382463 -1.871036819036888 -0.32358244451692858 -0.29217915457982263 -0.3114232699873653 -0.054578567457651252 0.48228018264468592 0.14898334075459388 -0.10964678060350629 -0.47924948509570203 0.37380837544047835 1.0000000180025095e-35 -0.52476423421168616 -0.31910438295415705 0.99524735170450629 -0.27337189323342831 -0.28493416240578012
decision_type=2 2 2 2 2 2 2 2 2 2 2 2 2 2 2 2 2 2 2 2 2 2 2 2 2 2 2 2 2 2
left_child=1 2 -1 -4 11 6 9 8 12 10 16 -5 15 17 -13 -3 18 -10 -2 -17 -18 24 -23 -24 26 -26 27 29 -29 -16
right_child=5 7 3 4 -6 -7 -8 -9 13 -11 -12 14 -14 -15 21 19 20 -19 -20 -21 -22 22 23 -25 25 -27 -28 28 -30 -31
leaf_value=-0.07551803813483364 0.030526248779575018 0.055816952679221668 -0.029636661322018112 -0.024821962015452288 -0.089862667763134604 -0.081627790406841871 -0.088080603798068743 -0.091777327246647819 -0.094349570733345725 -0.088026302997245634 -0.088856514827631447 -0.085180862168164784 -0.079234658513843481 -0.091200545191030283 0.014456494463170353 -0.036234363071775161 0.085995201110883962 0.042675858347956383 -0.09491482123872623 0.069235686923895423 -0.094603420313670611 -0.077684525789935732 0.070612753826847008 -0.086610297934458333 0.10724557885321823 -0.029063906843779876 0.097322609208876601 -0.087580891272199285 0.07009474930492747 0.10451049601348683
leaf_weight=68.096791446208954 55.582366824150085 218.2551149725914 104.76483023166656 55.376631945371628 32.017554610967636 562.60500472784042 177.09492552280426 88.774576038122177 27.279550105333328 53.470162451267242 32.838324666023254 18.018740862607956 43.73687219619751 120.87839350104332 54.990849286317825 115.0030529499054 118.0251898765564 63.197151243686676 28.547189623117447 33.479847878217697 9.5509060323238355 27.856742173433304 164.68202778697014 19.517504245042801 26.335310190916061 51.597074300050735 554.45683965086937 50.070651054382324 65.39349353313446 208.47122922539711
leaf_count=231 165 634 318 166 112 2000 628 300 89 187 111 58 151 413 154 352 331 189 88 96 31 85 459 58 73 152 1498 164 184 564
internal_value=0 0.0269528 0.0478189 0.0536776 0.0602464 -0.0587005 -0.0315508 -0.0171413 -0.00648602 0.00204199 0.0217356 0.0639526 0.0167313 -0.0515767 0.0679127 0.0281762 0.0388899 0.00136144 -0.0120389 -0.012453 0.0724748 0.0701676 0.036661 0.0539536 0.0771934 0.0169985 0.0822193 0.0601197 0.00171922 0.0857141
internal_weight=0 2212.25 1501.65 1433.55 1328.78 1037.71 475.109 710.605 621.83 298.014 244.544 1296.77 410.475 211.355 1241.39 366.738 211.706 90.4767 84.1296 148.483 127.576 1223.37 212.056 184.2 1011.32 77.9324 933.383 378.926 115.464 263.462
internal_count=10041 6500 4276 4045 3727 3541 1541 2224 1924 913 726 3615 1233 691 3449 1082 615 278 253 448 362 3391 602 517 2789 225 2564 1066 348 718
is_linear=0
shrinkage=0.1


Tree=11
num_leaves=31
num_cat=0
split_feature=0 5 5 7 1 0 2 2 3 5 0 5 0 2 2 7 0 0 8 8 2 8 8 8 3 2 9 4 0 0
split_gain=605.943 100.837 94.4925 82.5842 61.0606 60.6217 46.8476 45.4818 34.4905 32.8836 30.2649 32.5618 31.2944 27.5505 23.8162 22.6323 21.4497 31.3694 21.3259 35.1239 20.7049 20.4226 29.1576 39.6105 21.449 19.6516 18.3806 18.2107 18.1065 23.3695
threshold=-0.24651813352666682 -0.23988995788035455 0.09159186674603649 -0.39022679366308188 1.0000000180025095e-35 -1.871036819036888 -0.75570428546806878 0.11337839146974149 -0.39234357832444672 -0.42776468647491811 0.031704456097799684 -0.37290630781053469 -0.24632559041731367 -0.48222658802925272 -0.76322690849167774 -0.00073437378103433332 -0.20712533901824351 -0.20668002213421696 -0.13855726297468204 -0.73451436192826269 -0.52018041146670502 1.092668728143924 -0.13855726297468204 -0.74637142918756616 -0.21368963880541061 -0.76089968945313791 0.99524735170450629 -0.36247047823555911 -0.1710432636155762 -0.16658704507382463
decision_type=2 2 2 2 2 2 2 2 2 2 2 2 2 2 2 2 2 2 2 2 2 2 2 2 2 2 2 2 2 2
left_child=1 3 4 13 9 -5 8 26 -7 -2 12 14 -11 -1 -12 25 -14 -18 19 20 -4 22 23 -16 -24 -3 -8 -9 -19 -30
right_child=2 15 18 5 -6 6 7 27 -10 10 11 -13 16 -15 21 -17 17 28 -20 -21 -22 -23 24 -25 -26 -27 -28 -29 29 -31
leaf_value=0.098839322372909821 0.10887937956795629 0.10601955838745891 0.013954079720521146 0.10039546359227849 0.097933511825311098 0.12125745208061363 -0.068588589570380318 0.071233402768573359 -0.017738217291933363 0.10813502736211678 0.14913011618888947 0.08759823014124854 -0.094184703952374896 0.00013140235679529733 0.029966315960221319 0.070301479082153714 0.11840515838405295 -0.096790985691506473 0.11057964825117157 -0.094911671477703366 0.10722751778815098 -0.052596976591072223 0.10440732631903862 -0.10209529546922386 0.024758755531136985 -0.0036848833479419391 -0.044022375621917534 -0.030531951009171394 0.1116298110171127 -0.017716515517308545
leaf_weight=44.139494746923447 42.95794615149498 17.658880829811096 34.247261434793472 26.531776517629623 133.09666430950165 22.839986652135849 940.5466650724411 36.168567448854446 81.753325402736664 21.59609180688858 13.666479438543318 93.982230305671692 31.706253051757812 78.680212706327438 63.305538207292557 67.479179739952087 18.501540452241898 25.284028053283691 273.52074930071831 12.991146832704542 78.007519841194153 39.665336787700653 52.094981521368027 35.419550031423569 96.330294132232666 216.76067858934402 450.42279917001724 34.222532093524933 15.341253042221068 156.07177418470383
leaf_count=120 116 50 101 72 357 64 3238 101 247 63 38 261 103 237 182 190 51 79 734 42 210 120 146 105 279 647 1472 104 45 467
internal_value=0 -0.0340246 0.0548532 -0.0434044 0.0358052 -0.049498 -0.0520377 -0.0566649 0.0126142 0.0240914 0.0185974 0.036225 -0.00729996 0.0356055 0.0201569 0.0192692 -0.0173967 -0.00608319 0.0949308 0.0607559 0.0787712 0.0140114 0.0247015 -0.0174134 0.0527142 0.00457918 -0.0606336 0.0217574 -0.0177927 -0.00614018
internal_weight=0 2017.2 1237.79 1715.31 839.02 1592.49 1565.95 1461.36 104.593 705.923 662.965 394.464 268.501 122.82 300.482 301.899 246.905 215.199 398.767 125.246 112.255 286.816 247.15 98.7251 148.425 234.42 1390.97 70.3911 196.697 171.413
internal_count=10041 6542 3499 5655 2412 5298 5226 4915 311 2055 1939 1131 808 357 870 887 745 642 1087 353 311 832 712 287 425 697 4710 205 591 512
is_linear=0
shrinkage=0.1


Tree=12
num_leaves=31
num_cat=0
split_feature=0 4 3 8 2 7 7 2 2 0 0 0 6 0 0 1 6 8 0 1 4 5 0 8 6 5 7 6 9 6
split_gain=98.9896 95.5948 47.3869 32.7033 28.8258 26.647 29.3791 52.4999 28.0423 23.9467 21.175 20.9322 18.428 17.8736 17.1145 16.3345 16.0255 15.6997 15.58 24.5245 15.4733 24.7569 21.4099 24.518 18.5204 17.1185 15.6098 15.4657 14.6425 22.0371
threshold=0.14898334075459388 -0.42608383340805295 -0.12972737954095986 0.46758002091462153 1.4301731580549288 -0.16678854632116788 -0.25935432396099972 -0.52476423421168616 -0.36321691881737123 -0.047339708852173007 -0.91093524399102244 -0.28787743876090011 -0.18247372120546715 -1.2782145670723963 -0.67049436679887753 -0.14683704723896315 -0.27509758844743393 1.7021804636740516 -0.65657121526843387 -0.29261834692755767 -0.43119255839054649 -0.30633582491709799 0.74785901787098275 0.22062416193404552 4.7282552447314581 0.96093370701277625 -0.20693175324867111 -0.10310564040418695 0.99524735170450629 -0.18900452822743913
decision_type=2 2 2 2 2 2 2 2 2 2 2 2 2 2 2 2 2 2 2 2 2 2 2 2 2 2 2 2 2 2
left_child=1 12 3 5 13 6 7 -3 9 -8 -9 -5 17 -4 -14 -10 -15 -1 -12 -20 -2 22 26 -24 -23 -26 -22 -21 -18 -30
right_child=20 2 4 11 -6 -7 8 10 15 -11 18 -13 14 16 -16 -17 28 -19 19 27 21 24 23 -25 25 -27 -28 -29 29 -31
leaf_value=-0.0065055315998329812 -0.063088994302054377 -0.055651125010058346 -0.081625265504275499 0.069508436081277519 -0.052744966349541768 -0.066202995938764359 0.063969269601207635 -0.071132601918194219 -0.016375329319946695 -0.067254959338359288 0.097590960300799237 -0.0089641825918291475 -0.08789031202367531 -0.018652942658683874 0.010525872603002055 0.072633601358550834 0.066169266634385854 -0.06435394429277487 -0.048966768148016843 0.082247347372746082 0.054232970634565315 -0.054410660771622703 -0.084733686432351366 0.10112742902731785 0.093611582774040802 -0.094824422686836801 -0.042947820339871795 -0.037698319531013574 0.10094021187934986 0.0051243301912705097
leaf_weight=1043.9748271405697 165.28790372610092 160.0294560790062 9.9709472358226758 130.97355249524117 27.958125561475754 54.318398252129555 170.08494761586189 19.423407584428787 141.40967613458633 15.144792050123213 35.288060158491135 45.906503468751907 57.947003901004791 29.33546307682991 25.421653002500534 24.136850088834763 426.97082895040512 49.122274473309517 33.693933665752411 50.086826592683792 76.100558549165726 226.22223642468452 37.478923052549362 8.7556434869766218 16.634794741868976 6.7884017825126639 21.11458033323288 13.687406748533247 31.552713483572006 100.32905834913254
leaf_count=3261 564 514 34 363 95 186 486 61 429 50 106 136 193 87 78 69 1177 177 104 145 240 775 125 29 50 22 66 41 90 288
internal_value=0 0.00884126 0.0254035 0.0106302 0.046502 0.00113354 0.00665043 -0.0156627 0.0265102 0.0532401 0.0263885 0.0491421 -0.0125615 0.0511408 -0.0578802 -0.00339774 0.0533914 -0.00910516 0.0406567 0.0200438 -0.0374173 -0.026623 0.00648341 -0.0495363 -0.0456463 0.0389999 0.0331259 0.0565043 0.0571732 0.0280483
internal_weight=0 2696.77 1520.3 894.184 626.117 717.304 662.985 312.209 350.776 185.23 152.18 176.88 1176.47 598.159 83.3687 165.547 588.188 1093.1 132.756 97.4682 558.383 393.095 143.45 46.2346 249.645 23.4232 97.2151 63.7742 558.853 131.882
internal_count=10041 8170 4461 2690 1771 2191 2005 971 1034 536 457 499 3709 1676 271 498 1642 3438 396 290 1871 1307 460 154 847 72 306 186 1555 378
is_linear=0
shrinkage=0.1


Tree=13
num_leaves=31
num_cat=0
split_feature=4 0 2 6 2 3 9 2 9 1 3 0 6 0 1 8 2 8 2 7 1 1 2 9 5 3 5 0 8 5
split_gain=437.749 165.916 91.5791 71.9296 65.2554 58.3791 81.0737 51.0111 55.8509 46.0039 42.4097 46.5943 40.4491 40.4333 39.7419 44.134 40.9224 38.2457 34.8368 31.6797 31.3719 35.1609 37.5343 64.9508 38.9749 33.3449 31.9515 29.8387 29.5793 29.4763
threshold=-0.36442409290745897 -0.36589727135332473 -0.76747796704925519 -0.37705867753263383 0.0010688046086869362 -0.14297512902346859 0.50739629397191655 7.2239890683803182e-06 0.99524735170450629 -0.23531879398383168 -0.10644160244821803 -0.80275792962198989 0.046755933280265845 -0.16658704507382463 -0.24197635805049431 -0.21599072032994884 -0.29544635747900849 -0.47924948509570203 -0.73186540933068256 -0.3114232699873653 1.0000000180025095e-35 -0.22903535193503824 -0.41841261018250248 0.99524735170450629 -0.40751445707441353 -0.39289470674146854 -0.38262218911503543 -1.1334069120684658 0.095659835543161972 -0.38596798157670831
decision_type=2 2 2 2 2 2 2 2 2 2 2 2 2 2 2 2 2 2 2 2 2 2 2 2 2 2 2 2 2 2
left_child=1 2 -1 -4 10 6 9 8 14 12 20 -12 28 19 18 16 -16 -13 -3 -10 21 22 23 24 -5 -22 -26 -24 -2 -27
right_child=5 7 3 4 -6 -7 -8 -9 13 -11 11 17 -14 -15 15 -17 -18 -19 -20 -21 25 -23 27 -25 26 29 -28 -29 -30 -31
leaf_value=-0.081546572024227659 0.051235217212875266 -0.066945222344231989 -0.070105931436420743 -0.10644162045185589 -0.088052360787231665 -0.078606884921202366 -0.085613729873951258 -0.089155870408322652 -0.091838286247926504 -0.087239943902981482 -0.063609567024572586 -0.090835055211131221 -0.086419843659318207 -0.088471614544047977 0.10379166052538112 -0.078254286442374144 -0.076213777776488537 0.056798406755227987 0.048831389490073582 0.03903401214562232 -0.09284588705033979 0.10061759974851643 -0.066417945343540188 -0.052205057924393061 0.090599198431765629 0.077565308096077992 -0.036403390520080368 0.077041989006589137 -0.04972517519212917 -0.096328260945726843
leaf_weight=56.845394298434258 179.25863400101662 29.024760901927948 49.911829590797424 13.147033065557478 32.462998420000076 527.31000006198883 166.57351258397102 83.964511215686798 26.010831028223038 48.544432640075684 54.90585720539093 19.616076678037643 31.538712456822395 113.74667322635651 35.042750477790833 77.786017075181007 19.746263682842255 166.3918884396553 248.52122485637665 64.023876667022705 24.506582260131836 255.76599696278572 14.919534534215925 74.584269016981125 139.48870208859444 51.304724276065826 23.08795490860939 513.56640896201134 34.624429047107697 12.034288734197615
leaf_count=205 511 88 163 38 119 2000 628 300 89 181 170 62 112 413 104 261 64 461 716 189 73 691 41 239 376 143 64 1393 109 38
internal_value=0 0.0242413 0.0429553 0.0478508 0.0520688 -0.0558882 -0.0298756 -0.0160507 -0.00605202 0.0017079 0.0554053 0.0173358 0.0193018 -0.0488417 0.0152094 -0.0298313 0.0389167 0.0412292 0.0367239 0.00122529 0.0635766 0.0684483 0.0578834 0.0259841 0.0591707 0.00620281 0.0725632 0.072992 0.0348913 0.0445259
internal_weight=0 2200.41 1502.54 1445.69 1395.78 987.85 460.54 697.867 613.902 293.966 1363.32 240.914 245.422 203.781 410.121 132.575 54.789 186.008 277.546 90.0347 1122.41 1034.56 778.794 250.308 175.724 87.8456 162.577 528.486 213.883 63.339
internal_count=10041 6500 4276 4071 3908 3541 1541 2224 1924 913 3789 693 732 691 1233 429 168 523 804 278 3096 2842 2151 717 478 254 440 1434 620 181
is_linear=0
shrinkage=0.1


Tree=14
num_leaves=31
num_cat=0
split_feature=0 1 5 2 2 6 1 0 7 5 1 0 2 0 8 8 2 2 9 4 0 2 2 1 3 8 2 3 3 8
split_gain=499.384 91.9611 78.9617 78.4129 72.7034 40.865 40.851 34.8107 33.3057 29.4148 27.3108 20.5747 20.1475 20.1259 19.0351 29.2424 28.5807 19.0138 18.7235 26.7448 18.5515 18.2438 17.8434 15.3496 14.1963 13.7118 13.4879 18.6876 13.2723 12.4463
threshold=-0.24651813352666682 1.0000000180025095e-35 -0.23988995788035455 0.033120522075672669 -0.76918242903061873 -0.36938968485700513 1.0000000180025095e-35 -1.5229690295880429 -0.00073437378103433332 -0.4260835694422011 0.020811770470479201 1.5956653479175811 -0.76322690849167774 -0.445295970545942 -0.13855726297468204 -0.73451436192826269 -0.50197511512973547 1.0416621576099179 0.99524735170450629 -0.37326443779435986 0.14898334075459388 1.6057768541111075 -0.72960676102321964 -0.064288043903244371 -0.37001068834021056 0.061439316870894663 -0.034686455476537682 -0.39234357832444672 -0.22565571043172233 1.7021804636740516
decision_type=2 2 2 2 2 2 2 2 2 2 2 2 2 2 2 2 2 2 2 2 2 2 2 2 2 2 2 2 2 2
left_child=1 3 6 4 -1 23 9 -3 18 -2 12 17 -9 -14 15 16 20 22 -7 26 -4 -5 -11 -6 -21 -10 27 -20 29 -24
right_child=2 7 14 21 5 8 -8 10 25 11 -12 -13 13 -15 -16 -17 -18 -19 19 24 -22 -23 28 -25 -26 -27 -28 -29 -30 -31
leaf_value=0.038957420387161212 0.095360870050840971 0.12591438693724807 -0.035918673726460931 0.017010631821712609 0.056026151076327982 -0.065331007144930467 0.083375488743268639 0.092196319208102465 0.098718564497961736 0.056016907655887932 0.142762829874337 0.11331226796179671 -0.027396205378142875 0.062244648038170959 0.095108374541125557 -0.092903167880026727 0.098829985841456552 0.10016992016507811 0.12954969107630104 0.14140782104519875 0.11685179341649701 0.13098732851529879 0.035931569363021609 -0.080648363297482262 -0.0070483459575319558 -0.031417255463220439 -0.073990036936403075 -0.040899214536509215 -0.01101802804372053 -0.042322576989118503
leaf_weight=94.059570878744125 47.696664154529572 31.147179961204529 33.782246142625809 137.53047958016396 46.374037861824036 946.35141943395138 119.5540591776371 21.717034459114075 19.237890601158142 64.866511970758438 14.835261136293409 20.074909061193466 131.72027084231377 30.927065551280975 325.26592570543289 12.791112482547758 86.809393137693405 22.647252470254898 6.7090309858322135 6.8679655194282523 10.394562751054762 15.640869885683058 134.41759324073792 9.9867370426654798 103.70361191034317 13.980444222688673 172.81654588878155 155.94075754284859 335.90599471330643 23.945497632026672
leaf_count=264 128 84 103 405 136 3389 320 60 54 186 42 54 418 91 875 43 233 63 19 20 28 42 389 31 319 41 612 515 1004 73
internal_value=0 -0.031751 0.0493771 -0.0396577 -0.0462963 -0.0517073 0.0296559 0.0276038 -0.0550091 0.0197685 0.0122318 0.0137779 0.00172831 -0.0103512 0.0817148 0.0514146 0.0655075 0.0103433 -0.0573699 -0.040479 2.73859e-05 0.0286492 0.00670499 0.0318084 0.00217276 0.0439489 -0.0545372 -0.0338685 0.000233432 0.024099
internal_weight=0 1959.55 1238.15 1729.2 1576.03 1481.97 769.108 230.347 1425.61 649.554 199.2 601.858 184.364 162.647 469.043 143.777 130.986 581.783 1392.39 446.038 44.1768 153.171 559.136 56.3608 110.572 33.2183 335.466 162.65 494.269 158.363
internal_count=10041 6542 3499 5847 5400 5136 2217 695 4969 1897 611 1769 569 509 1282 407 364 1715 4874 1485 131 447 1652 167 339 95 1146 534 1466 462
is_linear=0
shrinkage=0.1


Tree=15
num_leaves=31
num_cat=0
split_feature=0 4 3 8 7 7 2 3 4 0 2 9 1 5 0 0 8 0 8 0 8 6 1 1 3 3 7 8 3 2
split_gain=82.9821 78.4475 37.034 28.7648 25.9133 23.6963 43.9316 22.8258 26.3607 22.8463 21.9372 20.1174 19.426 18.0913 24.7217 19.7511 21.4345 16.9216 17.9203 16.313 26.6234 19.5212 16.0118 19.8248 15.9929 15.9047 17.6413 20.5148 20.1681 15.0937
threshold=0.30972192594895881 -0.42608383340805295 -0.12972737954095986 0.46758002091462153 -0.16678854632116788 -0.25935432396099972 -0.52476423421168616 -0.38618085628639337 -0.22274493515750729 -0.52471437720078773 1.6057768541111075 0.50739629397191655 -0.20537596487272083 -0.23988995788035455 -0.087507792398769726 -0.55980887294508075 1.0000000180025095e-35 -0.4151934971364627 3.5300187443954258 -0.85751838940752856 1.7021804636740516 -0.23910966571575806 -0.045019477804965083 -0.30070955243003505 -0.26150034200910161 -0.16565457165279387 -0.38648200696829638 -0.710941472727462 -0.38801405067191991 0.90823982309431683
decision_type=2 2 2 2 2 2 2 2 2 2 2 2 2 2 2 2 2 2 2 2 2 2 2 2 2 2 2 2 2 2
left_child=1 19 3 4 5 6 -3 -7 9 -9 13 22 -10 15 -15 16 29 18 -5 21 -21 25 23 -8 -2 26 28 -28 -1 -4
right_child=24 2 10 17 -6 7 11 8 12 -11 -12 -13 -14 14 -16 -17 -18 -19 -20 20 -22 -23 -24 -25 -26 -27 27 -29 -30 -31
leaf_value=0.10239036728676801 -0.07804162800861339 -0.051877049114539303 -0.0027709014428407403 0.082742198131725619 -0.065171947265396282 -0.051474557760144757 0.13681321291724152 0.080427066099924324 -0.045106597628789442 0.01849752775657541 -0.059383641029044532 0.069045096247146345 0.061969594631688413 0.040952341286728422 -0.031067887385717481 0.073182509363325432 0.10273374748491799 0.0085594922837145815 -0.052604946176710202 -0.0021974309792676776 -0.081755730645212202 -0.081384383124487925 0.084038049251478841 -0.038391474198544079 -0.029923863669119467 0.044093112695215812 0.079763048117090077 -0.064252733776016938 -0.059469760434148901 0.11030502515056671
leaf_weight=18.238611370325092 86.24044468998909 157.56656274199486 110.57404482364655 98.651282340288162 56.205260470509529 36.968610674142838 7.0721063017845145 115.76440078020096 62.51639711856842 122.71350592374802 21.536166667938232 58.916655898094177 23.242499202489853 176.79418614506721 65.253149330615997 254.0360432267189 30.628812164068222 78.824472218751907 10.859256535768507 902.87444823980331 44.117499932646751 65.90457347035408 16.798761546611786 74.408041030168533 347.02206940948963 33.766897469758987 10.942338496446608 102.96469350159168 13.320369780063627 13.215586513280867
leaf_count=55 321 523 319 270 201 120 21 319 199 363 80 165 65 491 197 696 84 230 31 2817 169 231 49 238 1214 107 36 352 42 36
internal_value=0 0.00754386 0.0220656 0.00903579 7.02579e-05 0.00549501 -0.0145619 0.022973 0.0314613 0.04856 0.0399128 0.0228414 -0.0160867 0.0432002 0.0215365 0.056038 0.0278333 0.0438903 0.0693209 -0.0118555 -0.00590381 -0.0348473 -0.00485701 -0.0231845 -0.0395017 -0.0177355 -0.0320877 -0.050418 0.0340727 0.00930091
internal_weight=0 2784.68 1592.55 920.508 732.173 675.968 314.762 361.205 324.237 238.478 672.038 157.196 85.7589 650.502 242.047 408.454 154.418 188.335 109.511 1192.13 946.992 245.137 98.2789 81.4801 433.263 179.233 145.466 113.907 31.559 123.79
internal_count=10041 8506 4697 2794 2263 2062 996 1066 946 682 1903 473 264 1823 688 1135 439 531 301 3809 2986 823 308 259 1535 592 485 388 97 355
is_linear=0
shrinkage=0.1


Tree=16
num_leaves=31
num_cat=0
split_feature=4 2 0 2 6 3 9 9 1 0 1 6 1 1 7 3 3 1 1 7 5 5 1 2 5 7 3 3 8 3
split_gain=371.435 138.165 95.6854 80.7949 61.2038 53.3948 72.7294 48.2492 40.3578 37.2773 35.9844 35.1468 34.5234 33.2158 31.798 29.7555 37.7228 32.2253 28.9719 28.4779 28.4149 26.4885 26.0206 33.0473 42.5953 37.7579 25.584 30.4223 25.5412 25.0161
threshold=-0.36442409290745897 0.0010688046086869362 -0.36589727135332473 -0.76747796704925519 -0.37922363474029369 -0.14297512902346859 0.50739629397191655 0.99524735170450629 -0.23896368435054441 -0.16658704507382463 -0.30195097750683425 0.046755933280265845 1.0000000180025095e-35 -0.027878261891584748 -0.32358244451692858 -0.10644160244821803 0.074204890465265974 -0.28969984711584112 -0.29217915457982263 -0.3114232699873653 -0.40876171356973107 -0.17202533816263441 -0.16279661257853845 -0.45378025238484848 -0.40751445707441353 -0.25935432396099972 -0.39289470674146854 0.068917859229712705 0.48228018264468592 -0.2263046305189875
decision_type=2 2 2 2 2 2 2 2 2 2 2 2 2 2 2 2 2 2 2 2 2 2 2 2 2 2 2 2 2 2
left_child=1 2 3 -1 -5 6 8 13 11 19 -6 18 15 14 -4 22 20 -18 21 -9 -17 -2 23 24 -12 -26 -14 -28 -16 -21
right_child=5 -3 7 4 10 -7 -8 9 -10 -11 12 -13 26 -15 28 16 17 -19 -20 29 -22 -23 -24 -25 25 -27 27 -29 -30 -31
leaf_value=-0.078886396529626826 -0.060877206208301608 -0.086675754733915603 0.046961145855125702 -0.076403990845281489 -0.028622952677631291 -0.075971494579001819 -0.083354508838084859 -0.089766492803353914 -0.083183191701102305 -0.086218879441247884 -0.09650360046468151 -0.084192643594679456 -0.089679307907771177 -0.073774942304909344 -0.035641940926844411 0.065148119475110816 0.12213960658602277 -0.012075942688143226 0.06167626556839443 0.071929221754632108 -0.044217832964168681 0.053216882884691397 0.099990465048281713 0.071398618372403383 0.056737324093880027 -0.065232544131286083 0.052083887397400719 -0.087192056991477626 0.063277667127916118 -0.072159835865156438
leaf_weight=53.642698839306831 49.28053879737854 111.25339744985104 222.79849493503571 39.601215392351151 56.250102549791336 493.91627036035061 155.79852326214314 24.842389017343521 47.280281260609627 107.09365996718407 24.818914800882339 29.662775635719299 24.050714075565338 39.116016134619713 113.55340233445168 33.118575870990753 52.048141658306122 27.257852911949158 129.33040215075016 48.605213761329651 84.039052069187164 34.6597660779953 177.92310976982117 558.58731326460838 201.49371731281281 29.0384221971035 81.062759935855865 19.445532619953156 33.89297553896904 16.02073860168457
leaf_count=205 151 424 636 135 166 2000 628 89 187 413 76 111 74 151 352 93 141 76 362 139 245 102 480 1507 562 91 231 68 96 50
internal_value=0 0.0218833 0.0277226 0.0415677 0.0461544 -0.0533225 -0.0282409 -0.00569203 0.00134634 -0.046415 0.0496993 0.0177977 0.053055 0.0138618 0.0231206 0.0583051 0.0227501 0.0760091 0.031983 0.00123024 -0.0133018 -0.0137667 0.0653477 0.0577749 0.0279727 0.0413737 0.0029682 0.0251379 -0.0129036 0.0362096
internal_weight=0 2179.55 2068.3 1462.38 1408.74 939.929 446.012 605.923 290.214 196.562 1369.13 242.933 1312.88 409.361 370.245 1188.33 196.464 79.306 213.271 89.4683 117.158 83.9403 991.861 813.938 255.351 230.532 124.559 100.508 147.446 64.626
internal_count=10041 6500 6076 4150 3945 3541 1541 1926 913 691 3810 726 3644 1235 1084 3271 555 217 615 278 338 253 2716 2236 729 653 373 299 448 189
is_linear=0
shrinkage=0.1


Tree=17
num_leaves=31
num_cat=0
split_feature=0 5 5 7 0 1 2 2 2 3 4 0 9 0 0 0 8 8 8 1 3 2 1 3 9 0 0 0 0 8
split_gain=409.544 78.7063 66.3928 63.1671 40.7567 40.445 32.9123 34.1528 28.2049 24.8398 24.0102 22.7591 24.4661 24.371 19.6795 26.8462 19.3494 22.6021 35.8082 21.4443 19.3499 17.9491 18.8246 17.5855 16.1005 16.0057 17.7215 15.5497 18.4396 14.9072
threshold=-0.24651813352666682 -0.23988995788035455 0.09159186674603649 -0.38546759921391688 -1.871036819036888 1.0000000180025095e-35 -0.75570428546806878 0.1220777059000324 -0.49670309449640065 -0.39234357832444672 -0.51653268529574403 0.031704456097799684 0.99524735170450629 -0.24632559041731367 -0.20712533901824351 -0.20668002213421696 1.092668728143924 -0.13855726297468204 -0.74637142918756616 -0.18615366996400842 -0.2436583106185746 0.8545210901985727 1.0000000180025095e-35 -0.10644160244821803 0.99524735170450629 -0.1710432636155762 -0.16658704507382463 -0.52549114199725466 -1.1990182099044342 -0.13855726297468204
decision_type=2 2 2 2 2 2 2 2 2 2 2 2 2 2 2 2 2 2 2 2 2 2 2 2 2 2 2 2 2 2
left_child=1 3 5 8 -5 10 9 -8 -1 -6 -2 13 16 -12 -15 -16 17 18 19 23 -19 22 24 -13 -3 -17 -27 28 -10 -4
right_child=2 21 29 4 6 -7 7 -9 27 -11 11 12 -14 14 15 25 -18 20 -20 -21 -22 -23 -24 -25 -26 26 -28 -29 -30 -31
leaf_value=0.08543636942606736 0.093377299399097682 -0.018780315711792794 0.049400049508022577 0.078988540222849443 0.099205477781384999 0.079204959579913442 -0.055002187000652403 0.017172319779235282 0.12335970106770314 -0.018808696709646217 0.09391484768341811 0.15641047503540315 0.067970500621988686 -0.092109432136021616 0.10649193846546628 -0.093816346615849977 -0.047625183995065601 0.11435436713286061 -0.097960884528050157 -0.050980817074756185 0.028896063579341071 0.10614115779695717 0.07272789790835571 0.02000899701500447 0.036409758789155033 0.09253488009274502 -0.017192300648697496 0.098301921282812579 -0.037445594801431795 0.091293726846159926
leaf_weight=49.678413778543472 40.852443099021912 157.16529980301857 123.609933629632 26.15158873796463 22.918867915868759 132.32534226775169 1254.8016767501831 69.177558094263077 7.8621936142444602 80.40778560936451 21.489848673343658 15.942097455263136 116.97561997175217 30.644300669431686 19.169055193662643 24.103843599557877 43.668841749429703 34.811470448970795 32.729680508375168 20.36246058344841 110.91111752390862 21.195517838001251 41.589824676513672 23.216622978448868 79.645872205495834 16.260122656822205 155.27198126912117 12.19440722465515 76.676862627267838 271.48812526464462
leaf_count=135 110 490 353 71 62 357 4642 201 22 245 61 45 315 104 52 79 135 96 101 59 318 58 114 67 225 46 467 36 241 734
internal_value=0 -0.029607 0.0443888 -0.0384157 -0.0447223 0.0284677 -0.0469889 -0.0512311 0.0241903 0.00736801 0.0189636 0.014396 0.0295286 -0.00820131 -0.0171419 -0.00644696 0.0135623 0.0247904 -0.0139432 0.0322567 0.0493111 0.0174325 0.0106789 0.0755401 -0.000218431 -0.0175131 -0.00679088 -0.00726325 -0.0224906 0.0781869
internal_weight=0 1899.47 1233.83 1599.87 1453.46 838.735 1427.31 1323.98 146.412 103.327 706.41 665.557 398.618 266.939 245.449 214.805 281.642 237.973 92.2509 59.5212 145.723 299.597 278.401 39.1587 236.811 195.636 171.532 96.7335 84.5391 395.098
internal_count=10041 6542 3499 5655 5221 2412 5150 4843 434 307 2055 1945 1136 809 748 644 821 686 272 171 414 887 829 112 715 592 513 299 263 1087
is_linear=0
shrinkage=0.1


Tree=18
num_leaves=31
num_cat=0
split_feature=0 4 3 8 7 7 2 3 4 0 2 9 1 3 6 3 3 3 1 3 5 6 0 7 8 8 0 6 7 0
split_gain=69.2557 63.4379 29.7702 24.1583 22.8032 19.3726 38.7128 19.3427 21.4786 23.0926 17.8464 16.5646 16.3668 15.0946 14.976 15.4958 17.4847 16.0587 15.5662 15.7142 14.5 14.4618 14.7011 14.3094 14.1036 50.5831 17.0096 15.3014 14.2321 14.0215
threshold=0.30972192594895881 -0.42608383340805295 -0.12972737954095986 0.46758002091462153 -0.16678854632116788 -0.25935432396099972 -0.52476423421168616 -0.38618085628639337 -0.24339720591533234 -0.65657121526843387 1.6057768541111075 0.50739629397191655 -0.20537596487272083 -0.26150034200910161 -0.27509758844743393 0.068917859229712705 0.074204890465265974 -0.0097811025320529901 -0.29372805235950361 0.19245989291051402 0.42592960004404834 -0.18247372120546715 -0.67049436679887753 -0.27254337314128063 -0.024491104681243572 0.46758002091462153 1.0310009398732543 4.7282552447314581 -0.16878967444212431 -0.4151934971364627
decision_type=2 2 2 2 2 2 2 2 2 2 2 2 2 2 2 2 2 2 2 2 2 2 2 2 2 2 2 2 2 2
left_child=1 21 3 4 5 6 -3 -7 9 -9 14 -8 -10 -2 -4 17 -17 -16 19 -18 -20 -1 -23 -13 26 -26 27 28 -15 -5
right_child=13 2 10 29 -6 7 11 8 12 -11 -12 23 -14 24 15 16 18 -19 20 -21 -22 22 -24 -25 25 -27 -28 -29 -30 -31
leaf_value=-0.0074244104089993476 -0.075226938975912136 -0.048941672081348891 -0.026953375068855062 0.06363517964143163 -0.062463039400066415 -0.048614515858425425 -0.0036515734562695707 0.089421750034704178 -0.038841082354537558 0.022645919960776487 -0.055883030328288077 0.091852386694500576 0.057992433371522704 -0.013657305657377002 0.043361624986246877 -0.014447390536583119 0.11591860870334936 0.09396200466168575 0.067717844728933607 -0.026475928565588482 4.6147359594080563e-05 -0.082590919971894591 0.010116271479451527 -0.021145495979813446 0.25950560506954873 -0.016328925859027437 -0.076265260061874729 0.091461595820972241 -0.0835296175213283 0.0082414954395268539
leaf_weight=1097.8166412264109 80.921103298664093 152.6083123087883 32.534570008516312 109.27858644723892 53.730498686432838 35.895924001932144 96.821877241134644 77.241627722978592 65.411133959889412 157.16211399435997 20.369112133979797 44.503819912672043 23.807659447193146 137.71671026945114 195.04117685556412 75.327493131160736 9.1658326685428602 92.448253989219666 156.03221890330315 50.174743056297302 39.724377274513245 52.035425752401352 25.481171488761902 14.978608220815657 7.4183467030525199 64.043291091918945 80.078967183828354 11.332412183284758 36.97882479429245 78.535464957356453
leaf_count=3537 321 523 98 301 201 120 308 210 213 457 80 123 66 484 542 218 25 253 430 142 115 193 79 42 26 230 299 34 141 230
internal_value=0 0.00722272 0.0203045 0.00852194 0.000212622 0.00525068 -0.0131151 0.0210313 0.0287563 0.0446501 0.0362878 0.0218644 -0.0130015 -0.0364371 0.0391742 0.0426559 0.0278847 0.0596332 0.0403849 -0.00448146 0.0539854 -0.010372 -0.0521163 0.0633977 -0.0271384 0.0123051 -0.0377308 -0.021143 -0.0284476 0.040472
internal_weight=0 2756.13 1580.79 909.976 722.162 668.431 308.913 359.518 323.623 234.404 670.818 156.304 89.2188 418.49 650.449 617.914 330.425 287.489 255.097 59.3406 195.757 1175.33 77.5166 59.4824 337.569 71.4616 266.107 186.028 174.696 187.814
internal_count=10041 8506 4697 2794 2263 2062 996 1066 946 667 1903 473 279 1535 1823 1725 930 795 712 167 545 3809 272 165 1214 256 958 659 625 531
is_linear=0
shrinkage=0.1


Tree=19
num_leaves=31
num_cat=0
split_feature=4 2 2 0 9 6 3 9 1 7 8 1 8 0 2 1 2 1 3 1 0 2 7 1 2 5 9 5 1 3
split_gain=314.821 120.275 79.6797 71.771 59.5463 50.0335 49.279 67.7545 35.9541 30.6969 31.3983 29.6205 28.6772 33.843 29.9589 27.4406 27.1688 36.1768 24.288 32.003 30.8497 23.877 21.8254 21.6895 26.0233 38.0359 32.2198 39.1464 29.8591 21.6448
threshold=-0.36442409290745897 0.0010688046086869362 -0.76089968945313791 -0.36589727135332473 0.99524735170450629 -0.37922363474029369 -0.16574719491504997 0.50739629397191655 -0.23896368435054441 -0.3114232699873653 0.48228018264468592 -0.30195097750683425 -0.13855726297468204 -0.41136374320538255 -0.36321691881737123 1.0000000180025095e-35 -0.083648622816256485 -0.2658188549593718 -0.10964678060350629 -0.29889740823830485 -0.70386365303685716 -0.52476423421168616 -0.36324232004073803 -0.16279661257853845 -0.45378025238484848 -0.40751445707441353 0.99524735170450629 -0.38203248057691092 -0.27337189323342831 0.24756829973118469
decision_type=2 2 2 2 2 2 2 2 2 2 2 2 2 2 2 2 2 2 2 2 2 2 2 2 2 2 2 2 2 2
left_child=1 2 -1 5 9 -4 7 8 12 16 -11 22 -2 14 -14 18 29 -18 23 20 -20 -17 -7 24 25 -13 27 -27 -28 -5
right_child=6 -3 3 4 -6 11 -8 -9 -10 10 -12 15 13 -15 -16 21 17 -19 19 -21 -22 -23 -24 -25 -26 26 28 -29 -30 -31
leaf_value=-0.0511821114396682 0.064750923188315906 -0.084780622090085189 -0.073416338783569304 0.072498881655274863 -0.053854922686221808 0.073367933565127927 -0.071570180870390035 -0.082122451779807051 -0.08320843654902968 -0.047838641096129175 0.068042947128705039 -0.094099504988857871 -0.043410507346380418 -0.093446475226298245 0.071201267498128412 0.078880535770568388 0.042084294112758137 -0.094938634728989085 -0.10307689706353347 -0.0062735282854998187 0.10514621181735476 -0.022700175124948971 -0.066342517517820707 0.091971228776623615 0.064750149542953078 0.07924510950444813 -0.090394122267360891 -0.079088252087479313 0.046221692575528432 -0.094537625456649635
leaf_weight=128.4305607676506 90.173616826534271 104.76781539618969 36.492097452282906 156.70343413949013 152.54384006559849 15.619326978921888 503.45027719438076 133.00414544343948 38.54107403755188 96.53836752474308 30.854829877614975 23.891926869750023 39.709245100617409 34.545720607042313 53.581377103924751 31.037507474422455 55.681629508733749 29.46429905295372 8.1341375410556775 135.9159781485796 56.8061363697052 90.936063393950462 39.355736464262009 169.91917780041695 553.69290843605995 145.14150059223175 31.746827110648155 17.497673720121384 32.250504851341248 8.1616962403058988
leaf_count=478 249 424 129 444 561 45 2156 573 164 320 87 75 129 120 150 85 156 100 24 389 154 283 118 461 1500 392 112 49 90 24
internal_value=0 0.0197237 0.0250729 0.0301779 -0.0011299 0.0421277 -0.0509064 -0.0242011 0.00582718 0.0201811 -0.0197719 0.0452465 0.0215674 -0.0088935 0.0224167 0.048294 0.0405392 -0.00533177 0.0529804 0.0213179 0.0790651 0.00314815 -0.0266485 0.0595089 0.0526501 0.0259077 0.0385588 0.0622107 -0.0215486 0.0642297
internal_weight=0 2151.58 2046.82 1918.39 529.948 1388.44 893.005 389.555 256.551 377.404 127.393 1351.95 218.01 127.836 93.2906 1296.97 250.011 85.1459 1175 200.856 64.9403 121.974 54.9751 974.141 804.221 250.528 226.637 162.639 63.9973 164.865
internal_count=10041 6500 6076 5598 1692 3906 3541 1385 812 1131 407 3777 648 399 279 3614 724 256 3246 567 178 368 163 2679 2218 718 643 441 202 468
is_linear=0
shrinkage=0.1


Tree=20
num_leaves=31
num_cat=0
split_feature=0 1 2 2 5 5 5 3 3 5 7 6 0 2 1 8 0 8 2 0 9 2 0 2 3 2 0 1 5 1
split_gain=337.758 69.9531 60.3869 56.6178 55.1669 48.9986 32.4231 29.5853 34.1528 28.9137 28.3547 25.2841 25.2458 23.9991 21.3807 19.4731 17.4483 16.5947 17.3084 15.2116 15.1478 19.3356 15.0451 15.6965 14.9851 14.8033 15.184 13.8 13.7692 13.5399
threshold=-0.24651813352666682 1.0000000180025095e-35 0.033120522075672669 -0.72270830077933523 -0.30633582491709799 -0.37286815643874094 -0.37290630781053469 -0.39289470674146854 0.068917859229712705 -0.42036017371403173 -0.00073437378103433332 -0.36748589683010119 -1.5229690295880429 0.24923792121331043 0.020811770470479201 3.1404798891310999 0.14898334075459388 -0.13855726297468204 -0.48222658802925272 -0.52549114199725466 0.99524735170450629 -0.089928628818217504 1.4765758767559261 -0.75872653128676026 0.085314601591194264 -0.77247494678700124 -0.445295970545942 -0.29797365583517094 -0.43042927180204654 1.0000000180025095e-35
decision_type=2 2 2 2 2 2 2 2 2 2 2 2 2 2 2 2 2 2 2 2 2 2 2 2 2 2 2 2 2 2
left_child=1 2 3 7 5 6 9 -1 27 15 11 19 -3 22 25 -2 17 18 -6 28 -13 -22 23 -11 -19 -14 -27 -9 -5 -25
right_child=4 12 -4 10 16 -7 -8 8 -10 13 -12 20 14 -15 -16 -17 -18 24 -20 -21 21 -23 -24 29 -26 26 -28 -29 -30 -31
leaf_value=0.094776337789090823 0.092211610132911404 0.10896317516422625 0.024957167777407682 0.074977074129916083 -0.040510236712734592 -0.10344232542539884 0.093653719920861023 0.037181932570623008 0.10884355760996392 0.055304573980781049 0.051667112143413921 -0.061706865497817676 0.090485731196118246 0.068188748308683877 0.12567284284669952 -0.064047783986322951 0.080428981552715939 0.088685436745534293 0.056890129992664823 0.1219774812099679 -0.013029607356869911 -0.059291954031753129 0.081251877674450371 -0.012956718553910146 0.017190430999131309 -0.022796802388937182 0.053141910633319391 -0.040817136916414982 -0.050606790832792417 0.047440513011742458
leaf_weight=32.925526410341263 74.123744368553162 30.602902710437775 152.81217595934868 12.772394120693201 39.372994601726532 29.715553402900696 67.260581463575363 27.997905701398849 21.520530298352242 45.62315446138382 27.38589483499527 820.73668417334557 17.025564134120941 66.431338906288147 15.083408713340758 8.9367488324642164 306.32930439710617 85.285761088132858 33.999165236949921 10.960689395666121 173.2671502828598 188.77518698573112 23.879818648099899 354.70306910574436 44.671849012374878 130.63901242613792 32.977090060710907 119.48816972970963 27.588740468025211 41.456003278493881
leaf_count=89 204 84 447 36 122 91 187 83 63 129 78 3235 46 186 42 26 847 234 96 31 582 716 65 1074 125 427 96 397 90 113
internal_value=0 -0.0275685 -0.0348599 -0.0411061 0.0402367 0.0222604 0.0277341 0.00805609 -0.00883858 0.0205264 -0.0489757 -0.051209 0.0245001 0.0119607 0.0112937 0.0753992 0.0653545 0.0426437 0.00462311 0.0175055 -0.0541906 -0.0371516 0.00393924 -0.000239767 0.0641096 0.00174314 -0.00749123 -0.0260102 -0.0108654 -0.00663646
internal_weight=0 1842.56 1616.23 1463.42 1221.79 712.13 682.414 201.932 169.007 615.154 1261.49 1234.1 226.328 532.093 195.725 83.0605 509.659 203.33 73.3722 51.3218 1182.78 362.042 465.662 441.782 129.958 180.642 163.616 147.486 40.3611 396.159
internal_count=10041 6542 5847 5400 3499 2075 1984 632 543 1797 4768 4690 695 1567 611 230 1424 577 218 157 4533 1298 1381 1316 359 569 523 480 126 1187
is_linear=0
shrinkage=0.1


Tree=21
num_leaves=31
num_cat=0
split_feature=0 4 3 0 3 7 0 2 9 1 1 4 1 1 6 0 8 6 3 7 8 3 4 0 0 2 7 7 5 1
split_gain=57.5476 48.2807 24.9968 23.0755 23.9196 24.8893 17.0119 15.6812 15.4026 21.3463 24.1769 14.8798 23.1704 17.3088 14.5169 14.404 23.8153 17.0549 13.0413 14.8604 18.5996 17.2673 12.8862 12.7828 12.6954 12.6483 12.9582 18.4182 12.4127 12.193
threshold=0.19008409488249214 -0.42608383340805295 -0.14175244804703782 -0.60470741532142258 -0.39055202613114298 -0.30494722606829933 -0.91093524399102244 1.366067261264915 0.56312743893272044 -0.29980794162500707 -0.23896368435054441 -0.43119255839054649 1.0000000180025095e-35 -0.17916944390832293 -0.13784715155310776 -0.85751838940752856 1.7021804636740516 -0.23910966571575806 -0.16565457165279387 -0.38648200696829638 -0.710941472727462 -0.38801405067191991 -0.18608227951307829 -0.75459124486088458 -1.1990182099044342 2.2287056264840461 -0.21150018540216831 -0.2516483077483378 -0.35225739606636225 -0.29241955309080869
decision_type=2 2 2 2 2 2 2 2 2 2 2 2 2 2 2 2 2 2 2 2 2 2 2 2 2 2 2 2 2 2
left_child=1 15 3 4 -3 -6 -7 -4 9 22 29 -2 13 25 23 17 -17 18 19 21 -21 -1 -5 -8 -20 26 27 -13 -25 -11
right_child=11 2 7 8 5 6 14 -9 -10 10 -12 12 -14 -15 -16 16 -18 -19 24 20 -22 -23 -24 28 -26 -27 -28 -29 -30 -31
leaf_value=0.093797136088941357 -0.057534397573890617 -0.055195026845572294 0.036974401946585592 0.085962701443508857 -0.062143987152202589 -0.00071159437842751661 0.082365037391869664 -0.039979237783846752 0.013935442717296201 -0.011216697812026411 0.020400121036004238 -0.034536043086007773 -0.062294766360998725 0.039149534922202328 0.083695107750149156 0.0010959978163086923 -0.078622469697103986 -0.076556380672582094 -0.045237189604340887 0.077487113947478703 -0.059717724733709579 -0.05657446477773595 -0.05095124771586064 -0.024499624187993799 0.084450007780297112 0.089906740735310867 -0.05583035613918215 0.057682308390491516 0.080084420599050118 -0.066234529724713942
leaf_weight=18.680371940135959 139.99115175008774 30.376539349555969 635.31637446582317 27.203790500760078 22.791787475347519 58.692483514547348 30.734445512294769 27.631842285394669 239.1026516854763 58.587025806307793 68.430301874876022 58.933314800262451 90.20181442797184 69.70091524720192 115.92610940337181 865.85315619409084 39.169969275593758 59.283622056245804 11.33000300824642 11.006433159112929 96.556872099637985 12.91681072115898 9.1988343298435193 43.485080227255821 22.615000277757645 9.9894315153360349 78.31939397752285 34.241155534982681 15.355850070714949 128.91776894032955
leaf_count=55 541 103 1783 78 78 180 91 103 717 186 209 203 368 242 329 2746 163 231 41 36 352 42 31 146 66 31 289 112 45 444
internal_value=0 0.00750701 0.0192169 0.00785266 0.0291891 0.0381209 0.0467706 0.033767 -0.00488889 -0.0202853 -0.0304764 -0.030079 -0.0188205 -0.00320856 0.0603319 -0.00805671 -0.00235427 -0.0302645 -0.0144108 -0.027967 -0.0456782 0.0323258 0.051365 0.0300958 0.0411636 -0.0194767 -0.0258482 -0.000646256 0.00279391 -0.0490439
internal_weight=0 2649.16 1511.75 848.803 317.362 286.986 264.194 662.948 531.44 292.338 255.935 481.377 341.386 251.184 205.501 1137.41 905.023 232.389 173.105 139.16 107.563 31.5972 36.4026 89.5754 33.945 181.483 171.494 93.1745 58.8409 187.505
internal_count=10041 8255 4523 2637 972 869 791 1886 1665 948 839 1786 1245 877 611 3732 2909 823 592 485 388 97 109 282 107 635 604 315 191 630
is_linear=0
shrinkage=0.1


Tree=22
num_leaves=31
num_cat=0
split_feature=4 2 2 0 9 7 3 9 1 6 1 1 8 2 0 4 4 7 0 0 5 0 5 1 3 3 0 8 8 5
split_gain=269.089 104.727 66.396 59.8141 50.9208 45.5054 44.7676 60.0368 31.8465 28.3266 28.155 26.4817 33.7974 32.2144 26.6955 25.2491 31.3896 22.8603 22.7346 21.1447 20.1234 19.7036 19.1424 19.0393 18.8723 19.2066 19.8019 17.8603 17.8499 29.8348
threshold=-0.36442409290745897 0.0010688046086869362 -0.76322690849167774 -0.36589727135332473 0.99524735170450629 -0.38648200696829638 -0.14297512902346859 0.50739629397191655 -0.23531879398383168 0.046755933280265845 -0.30195097750683425 -0.24197635805049431 -0.21599072032994884 -0.29544635747900849 -0.36567118358510325 0.45051011783166678 -0.27374889846364447 -0.36324232004073803 -1.871036819036888 0.14898334075459388 -0.3740246473815651 -0.1710432636155762 -0.35225739606636225 -0.29398612947378705 -0.37913804275912588 -0.045845204922028891 -0.92243478673621004 1.6859776319206676 0.48228018264468592 -0.4165153448433157
decision_type=2 2 2 2 2 2 2 2 2 2 2 2 2 2 2 2 2 2 2 2 2 2 2 2 2 2 2 2 2 2
left_child=1 2 -1 5 11 24 7 8 9 15 17 14 13 -13 -5 16 23 -7 -12 -18 28 -6 -20 -2 -4 26 -26 -28 29 -16
right_child=6 -3 3 4 21 10 -8 -9 -10 -11 18 12 -14 -15 20 -17 19 -19 22 -21 -22 -23 -24 -25 25 -27 27 -29 -30 -31
leaf_value=-0.050908800855489045 -0.062136065969106639 -0.083017184919560671 -0.090438944389480316 -0.11080917330989806 -0.010422132412867508 0.080434619358356801 -0.071380417076265579 -0.079868562054493983 -0.081672829014683521 -0.081336770468327935 -0.077137325526893799 0.092405025343631098 -0.07254664772427924 -0.071985034030152065 -0.094386811582637009 -0.10582647827102841 0.083681990195962397 -0.06533094824373907 0.049011301405415389 -0.089949332519139988 -0.068999189884455345 -0.083320534561409532 -0.079637293462205827 0.031399252184950814 0.11198131897274524 -0.07992960759773729 -0.075390530324037086 0.12204569385636095 0.098391634951324053 0.047157225419363277
leaf_weight=115.39484438300133 37.600438237190247 98.169527098536491 32.419038474559784 11.888064146041868 67.072623625397682 14.637416273355482 431.64924529194832 136.13941550254822 39.85582010447979 27.147141247987747 14.748455733060835 35.006023570895195 61.36213892698288 18.076058968901634 16.393478408455849 13.383385449647902 102.52384839951992 40.60530723631382 1200.908105134964 7.5287044346332541 15.194901302456854 82.909109696745872 11.678556293249128 51.66341033577919 20.412708878517151 19.211515843868256 17.183735027909282 6.2476114332675925 57.131040930747986 162.54021868109703
leaf_count=450 121 424 107 34 215 41 2000 628 181 112 58 100 223 64 54 41 284 125 3356 27 47 354 35 147 58 65 57 17 155 461
internal_value=0 0.0178482 0.0227477 0.027208 -0.00142553 0.03817 -0.0488218 -0.0254056 0.00110307 0.0148581 0.0431279 0.0181545 -0.0220028 0.0364252 0.0356191 0.0271356 0.0360635 -0.0267081 0.0462713 0.0718039 0.0425472 -0.05072 0.0477723 -0.00800045 -0.0284334 0.00344579 0.0399791 -0.0227472 0.0497272 0.0341893
internal_weight=0 2119.19 2021.02 1905.63 527.574 1378.05 847.491 415.842 279.703 239.847 1282.58 377.592 114.444 53.0821 263.148 212.7 199.316 55.2427 1227.34 110.053 251.26 149.982 1212.59 89.2638 95.4746 63.0556 43.8441 23.4313 236.065 178.934
internal_count=10041 6500 6076 5626 1707 3919 3541 1541 913 732 3615 1138 387 164 751 620 579 166 3449 311 717 569 3391 268 304 197 132 74 670 515
is_linear=0
shrinkage=0.1


Tree=23
num_leaves=31
num_cat=0
split_feature=0 5 7 1 1 2 2 3 5 0 3 5 1 1 6 7 9 2 2 2 2 3 5 6 6 9 2 1 0 7
split_gain=280.99 76.2453 57.1217 36.8272 32.7627 26.8457 32.1649 27.4081 25.8687 21.9419 19.3268 18.7926 18.1894 17.7685 17.2969 16.6827 16.3225 16.1842 17.6565 14.699 15.3724 14.0773 14.2908 14.1482 13.9735 15.5018 13.5376 19.4287 14.9552 12.878
threshold=-0.087507792398769726 -0.23988995788035455 -0.39022679366308188 1.0000000180025095e-35 1.0000000180025095e-35 0.1220777059000324 -0.72960676102321964 -0.39234357832444672 -0.37290630781053469 -1.5229690295880429 0.068917859229712705 -0.41756196889135783 -0.056053511229582804 0.020811770470479201 4.7282552447314581 -0.41122624729481594 0.99524735170450629 -0.68913241235647171 0.20933318894055711 0.8545210901985727 -0.77247494678700124 -0.32171534148765379 -0.37290630781053469 -0.35954526991230634 -0.25766713778760714 0.99524735170450629 -0.48222658802925272 -0.2985271201787536 -0.48722635116697049 -0.00073437378103433332
decision_type=2 2 2 2 2 2 2 2 2 2 2 2 2 2 2 2 2 2 2 2 2 2 2 2 2 2 2 2 2 2
left_child=1 2 15 8 5 6 7 -4 11 -6 -9 12 -2 -11 -10 -1 -8 -13 -19 20 -3 22 -18 -23 -22 29 27 -17 -28 -26
right_child=3 19 4 -5 9 -7 16 10 14 13 -12 17 -14 -15 -16 26 21 18 -20 -21 24 23 -24 -25 25 -27 28 -29 -30 -31
leaf_value=0.11907025301861254 0.089570189142022263 0.097651875230722177 0.095885214284627429 0.080619345144619964 0.097440654481751349 0.013779530175939129 -0.059416408542602765 -0.033917797351335294 0.057805461834279384 -0.016278814630439214 0.081427430400497769 0.059942291570626416 -0.076741614508010897 0.16029579356914514 -0.042210040006286531 -0.042870680839930494 -0.059537649333299997 -0.013211322598061487 0.053697308720862515 0.089898213616276382 0.067791160679458284 0.12689801534446893 0.060294412123520817 -0.019362840296996257 -0.029649404104007484 0.035603747489014737 -0.026968080256770773 0.10463308797083448 0.10193025977179936 0.031862284421166433
leaf_weight=18.67464491724968 50.924526065587997 20.632847398519516 23.718543946743011 211.13122710585594 22.738655775785446 82.929631382226944 752.53970444202423 123.57764983177185 342.69287401437759 131.31773540377617 16.461581438779831 48.828883796930313 7.5513161420822135 5.957472711801528 18.210402637720108 12.593404561281202 178.23907035589218 241.90571017563343 47.123317301273346 27.673290014266968 35.298437565565109 6.8753472566604605 10.540515765547751 173.78291361033916 144.52910232543945 88.21059986948967 63.475393086671829 30.694399207830429 10.488457590341566 44.519673556089401
leaf_count=51 143 57 64 598 64 243 3146 415 973 431 48 138 22 17 52 34 687 726 131 77 100 21 35 618 465 248 200 83 29 125
internal_value=0 -0.0218029 -0.0308365 0.0436873 -0.0363603 -0.041366 -0.0449228 -0.00352227 0.0333899 0.00645525 -0.020359 0.0157525 0.0680934 -0.00861583 0.0527589 0.0312864 -0.0509654 0.00669339 -0.00230253 0.0198675 0.0140511 -0.0337509 -0.0528468 -0.0137966 0.00853233 0.000987973 0.017305 0.0617209 -0.00868963 -0.0151638
internal_weight=0 2025.47 1664.61 968.368 1528.68 1368.66 1285.74 163.758 757.237 160.014 140.039 396.334 58.4758 137.275 360.903 135.926 1121.98 337.858 289.029 360.864 333.191 369.438 188.78 180.658 312.558 277.259 117.252 43.2878 73.9639 189.049
internal_count=10041 7258 6186 2783 5789 5277 5034 527 2185 512 463 1160 165 448 1025 397 4507 995 857 1072 995 1361 722 639 938 838 346 117 229 590
is_linear=0
shrinkage=0.1


Tree=24
num_leaves=31
num_cat=0
split_feature=0 4 3 5 0 3 5 2 2 5 8 5 9 6 2 7 3 5 3 8 2 6 0 3 3 6 0 0 1 1
split_gain=47.9179 41.4581 21.7549 20.8142 23.1871 20.4363 18.8898 20.7143 17.3344 16.6483 16.0887 16.0269 16.4062 30.684 21.071 16.0172 19.4699 14.8952 14.4707 14.3019 27.0163 14.2781 13.8868 16.893 27.1868 20.0072 15.4282 14.8881 13.4581 15.0769
threshold=0.30972192594895881 -0.42608383340805295 -0.38753474532557936 -0.10316578299704561 -0.1710432636155762 -0.27438016562797501 -0.37286815643874094 -0.73186540933068256 0.61270936855175151 -0.37290630781053469 -0.13855726297468204 -0.3789036416518658 0.99524735170450629 -0.16746215325200536 -0.54425681573893581 -0.21722793206252891 1.0000000180025095e-35 -0.31711544740527803 -0.26150034200910161 -0.13855726297468204 -0.60099046398076272 -0.20838073384513447 -0.80297530954917395 -0.13237622693648243 0.23274064090164689 -0.13408377420526371 -0.67049436679887753 -1.0522645344589445 -0.29558394831984491 -0.26971506829087777
decision_type=2 2 2 2 2 2 2 2 2 2 2 2 2 2 2 2 2 2 2 2 2 2 2 2 2 2 2 2 2 2
left_child=1 -1 -3 6 5 -5 7 15 -7 11 -11 12 22 -14 -15 16 -4 19 -2 20 -8 -13 27 25 26 -24 -25 -9 -27 -30
right_child=18 2 3 4 -6 8 17 9 -10 10 -12 21 13 14 -16 -17 -18 -19 -20 -21 -22 -23 23 24 -26 28 -28 -29 29 -31
leaf_value=-0.0077521716810133234 -0.071177893938379255 -0.034262988521829844 -0.068433950870245494 -0.037228904512250936 -0.03684042465258628 0.039931180620259882 -0.11998935179669562 -0.025815082168314255 -0.055838960331940059 -0.066578182714919998 0.01670972327788614 -0.0065711053971312583 0.11988115064381132 0.095910439773396736 -0.0211847477546344 0.071460913685562899 0.062573162260338003 0.03233779886438664 -0.021625201433412754 0.10134484465642901 0.090893961438352114 0.067606932162866104 -0.059715791688046665 -0.022056298162635001 -0.047706623863203707 0.095790443747471074 0.086268445326985035 0.098511333265743295 -0.063458197453653206 0.042061377271186771
leaf_weight=1144.9608347117901 72.416540309786797 77.685586184263229 61.869837015867233 56.355912148952484 118.05477257072926 191.83433710038662 9.411678075790407 14.095208138227461 20.964853689074516 35.801326259970665 65.856214880943298 31.090388864278793 42.312616169452667 21.744938641786575 52.399839520454407 14.158735305070875 13.891273051500319 195.49809236824512 316.50457988679409 76.304282695055008 17.134973973035812 156.91164825856686 74.760021165013313 17.002610415220261 32.57022613286972 15.828027397394179 57.99562019109726 30.417689248919487 26.245921790599819 27.972314253449444
leaf_count=3809 321 269 207 182 415 542 27 48 70 112 190 93 118 62 147 39 38 564 1214 213 47 443 267 48 96 44 158 91 84 83
internal_value=0 0.00669108 0.0173178 0.0200281 0.000109137 0.0163157 0.0270958 0.0190254 0.030496 0.0248059 -0.0126223 0.0311331 0.0201232 0.0519329 0.0131565 -0.0261675 -0.044413 0.0485444 -0.0308518 0.0793499 0.0161288 0.0553399 0.00764543 -0.00143748 0.0285805 -0.0237362 0.0617105 0.0591428 0.0146647 -0.00901846
internal_weight=0 2701.13 1556.17 1478.48 387.21 269.155 1091.27 792.924 212.799 703.005 101.658 601.347 413.345 116.457 74.1448 89.9198 75.7611 298.349 388.921 102.851 26.5467 188.002 296.888 252.375 107.568 144.806 74.9982 44.5129 70.0463 54.2182
internal_count=10041 8506 4697 4428 1209 794 3219 2368 612 2084 302 1782 1246 327 209 284 245 851 1535 287 74 536 919 780 302 478 206 139 211 167
is_linear=0
shrinkage=0.1


Tree=25
num_leaves=31
num_cat=0
split_feature=4 2 6 0 3 9 2 1 1 5 6 0 1 4 4 1 3 7 1 3 3 3 7 2 9 6 0 1 2 1
split_gain=228.372 91.8112 56.327 50.3609 41.2924 54.6933 40.2901 30.9226 28.3922 27.5798 25.1631 23.8345 23.2456 22.2176 28.18 27.0836 21.876 21.4211 21.1976 23.9515 20.8913 20.303 30.666 25.4783 19.9405 35.2915 27.8922 26.4397 32.1315 31.2652
threshold=-0.36442409290745897 0.0010688046086869362 -0.37475635987712957 -0.36589727135332473 -0.14297512902346859 0.50739629397191655 -0.76747796704925519 -0.027878261891584748 -0.23531879398383168 -0.37616976722466056 0.046755933280265845 -0.36567118358510325 -0.30195097750683425 0.45051011783166678 -0.22274493515750729 -0.29359201573018434 0.24756829973118469 -0.21150018540216831 1.0000000180025095e-35 -0.39289470674146854 0.068917859229712705 -0.38753474532557936 -0.38895127312968952 -0.028052093971725752 0.99524735170450629 -0.31532500160724747 -0.93022443260802601 -0.16874931693560916 -0.023620262249275346 -0.29688361806005742
decision_type=2 2 2 2 2 2 2 2 2 2 2 2 2 2 2 2 2 2 2 2 2 2 2 2 2 2 2 2 2 2
left_child=1 2 -1 6 5 8 -4 9 10 11 13 -5 -8 14 15 -2 -13 -17 21 -20 -21 22 -14 -24 25 -23 -26 28 -28 -30
right_child=4 -3 3 7 -6 -7 12 -9 -10 -11 -12 16 18 -15 -16 17 -18 -19 19 20 -22 24 23 -25 26 -27 27 -29 29 -31
leaf_value=-0.048412778088872004 -0.063149800831868705 -0.081565080926713329 -0.071369818890537617 -0.10334802806482557 -0.069319292569123794 -0.078303193280818514 -0.026344822375585705 -0.074501741591538412 -0.080176701327738936 -0.063618793517468908 -0.079574932029026213 0.024458594551986488 -0.11029321125365817 -0.1018202470704466 0.07566858337285709 0.068632448939459856 -0.090063488713212125 -0.068053130574013673 -0.092177377852377035 0.042701545421529763 -0.082101360731393458 -0.0072210584763694567 -0.096422000789552653 0.085524092062510312 0.082711600644597372 0.056342890675454095 -0.059136223204308884 0.06731070610094457 0.085656412807248006 -0.060638107002154863
leaf_weight=111.91725566983223 42.143710315227509 92.179603487253189 34.859102129936218 16.42718680202961 403.15338991582394 126.66845467686653 54.606161206960678 52.543720960617065 37.08401520550251 50.28991836309433 25.656036108732224 387.27872866392136 8.9279675781726819 12.904843047261236 88.244873076677322 52.903302744030952 17.430466130375862 14.6380358338356 22.736213326454163 80.485870391130447 16.094811245799065 102.93174098432064 7.9909060448408118 208.79155015945435 47.087917119264603 576.89750111103058 93.306766286492348 42.275636821985245 40.66092324256897 22.799980819225311
leaf_count=430 138 424 151 50 2000 628 165 236 181 175 112 1205 26 41 250 148 60 43 72 227 66 284 27 583 132 1603 294 117 111 62
internal_value=0 0.0160076 0.020513 0.0246065 -0.0467303 -0.0239771 0.0347519 -0.00173532 0.00117661 0.006375 0.0139336 0.0147333 0.0375426 0.0253124 0.0336014 -0.000242949 0.0195262 0.039009 0.0402874 0.000165112 0.0219036 0.0444442 0.071337 0.0788173 0.0378889 0.0467188 0.0135002 -0.00287317 -0.0217997 0.0330963
internal_weight=0 2088.52 1996.34 1884.42 803.397 400.243 1360.45 523.97 273.575 471.426 236.491 421.136 1325.59 210.835 197.93 109.685 404.709 67.5413 1270.99 119.317 96.5807 1151.67 225.71 216.782 925.96 679.829 246.131 199.043 156.768 63.4609
internal_count=10041 6500 6076 5646 3541 1541 3920 1726 913 1490 732 1315 3769 620 579 329 1265 191 3604 365 293 3239 636 610 2603 1887 716 584 467 173
is_linear=0
shrinkage=0.1


Tree=26
num_leaves=31
num_cat=0
split_feature=0 5 7 5 1 1 2 2 1 0 2 6 7 3 0 0 0 0 0 3 0 0 9 7 2 1 8 8 2 1
split_gain=234.87 54.7903 42.9284 42.4134 26.5045 23.1365 19.9076 23.3321 22.4214 18.9797 18.0942 16.6075 18.4537 16.0546 14.5059 14.2 21.4009 17.0991 18.8109 16.1854 12.4027 13.3588 12.3777 12.0552 12.0219 11.947 11.8669 23.6191 11.7935 12.6222
threshold=-0.24651813352666682 -0.23988995788035455 -0.38546759921391688 0.09159186674603649 1.0000000180025095e-35 1.0000000180025095e-35 -0.72270830077933523 0.033120522075672669 -0.29398612947378705 -1.5229690295880429 -0.49670309449640065 -0.38075248292456115 -0.17794752997220895 -0.39234357832444672 1.5956653479175811 -0.24632559041731367 -0.20712533901824351 -0.20668002213421696 -0.1710432636155762 -0.22565571043172233 -0.445295970545942 -1.1990182099044342 0.99524735170450629 -0.36721985386938527 0.83643388962824838 -0.28412356474791312 -0.13855726297468204 -0.73451436192826269 0.8545210901985727 1.0000000180025095e-35
decision_type=2 2 2 2 2 2 2 2 2 2 2 2 2 2 2 2 2 2 2 2 2 2 2 2 2 2 2 2 2 2
left_child=1 2 10 5 6 11 8 22 -4 -6 25 -2 14 -10 15 -13 -17 -18 -19 23 21 -12 -8 -20 -21 -1 27 -5 29 -3
right_child=3 28 4 26 9 -7 7 -9 13 -11 20 12 -14 -15 -16 16 17 18 19 24 -22 -23 -24 -25 -26 -27 -28 -29 -30 -31
leaf_value=0.015684749569909215 0.07545284773782189 0.00070121163074452755 0.05709777281362214 0.05057735680935202 0.090249037636184637 0.060523127507325594 -0.060173894739935896 0.0032804677719605463 0.068083989288360042 -0.012304900835063649 0.10945898532890022 0.083885497844774004 0.073307745607306726 -0.046918205578767275 0.087402444077296748 -0.089074804969513921 0.10617446486015468 -0.090129078912235705 -0.0170466427354262 -0.013585096575291231 0.13060567264021836 -0.027939896739532122 -0.0355309296360308 0.045068077965095509 0.058229799464287059 0.11472296163316953 0.073657592710190872 -0.095129047646897488 0.088538600704189119 0.060763462532353908
leaf_weight=22.545756340026855 40.888098835945129 231.05622082948685 38.646668896079063 107.34607717394829 21.333515971899033 124.09385442733765 633.11073632538319 82.367873668670654 13.972795486450194 117.11138595640659 7.7719016373157492 20.629991114139557 42.689092621207237 92.500869378447533 20.780863106250763 26.068201616406441 15.804207205772398 21.896458491683006 41.416165113449097 309.50064305961132 6.2138331532478324 79.055577799677849 300.59937728941441 127.23240587115288 25.208628356456757 26.492744237184525 254.17791911959648 12.411454275250433 20.449220448732376 41.232894361019135
leaf_count=62 117 715 119 311 62 357 2855 243 38 397 22 58 120 329 58 96 43 78 124 928 17 260 1178 363 70 73 734 42 58 114
internal_value=0 -0.0241461 -0.0321549 0.0335393 -0.0378603 0.0207617 -0.0427912 -0.0477396 -0.00814505 0.00349804 0.0200339 0.0136326 0.00975111 -0.0318262 0.00529259 0.0023895 -0.000575028 0.00368889 0.000605236 0.00455225 -0.00587415 -0.0156414 -0.0522403 0.0298141 -0.00817636 0.0691895 0.0614297 0.0354766 0.015297 0.00979647
internal_weight=0 1734.46 1441.72 1190.14 1299.64 816.209 1161.2 1016.08 145.12 138.445 142.08 692.115 651.227 106.474 608.538 587.757 567.127 541.059 525.254 503.358 93.0413 86.8275 933.71 168.649 334.709 49.0385 373.935 119.758 292.738 272.289
internal_count=10041 6542 5655 3499 5221 2412 4762 4276 486 459 434 2055 1938 367 1818 1760 1702 1606 1563 1485 299 282 4033 487 998 135 1087 353 887 829
is_linear=0
shrinkage=0.1


Tree=27
num_leaves=31
num_cat=0
split_feature=0 4 3 5 5 5 2 5 0 8 7 7 3 3 8 8 0 8 6 0 9 4 6 0 3 0 0 8 2 6
split_gain=39.9884 33.6241 18.067 16.4004 17.5284 17.4922 17.7607 14.8157 14.2379 15.9692 14.2823 13.8959 16.9864 13.7556 13.8477 40.1541 15.9789 13.737 12.6272 12.5218 12.5096 27.4069 23.5465 17.3921 22.0944 22.4074 14.0568 13.6053 12.9354 11.7428
threshold=0.30972192594895881 -0.42608383340805295 -0.38753474532557936 -0.17315241729301853 1.8625054162673824 -0.37286815643874094 -0.73186540933068256 -0.37290630781053469 -0.1710432636155762 -0.14741197867352587 0.3209209563987781 -0.21722793206252891 1.0000000180025095e-35 -0.26150034200910161 -0.024491104681243572 0.46758002091462153 1.0310009398732543 -0.13855726297468204 -0.031303460291463747 -0.087507792398769726 0.99524735170450629 -0.36442409290745897 -0.076473426220877119 -0.80297530954917395 -0.10964678060350629 -0.59215801456852024 -1.0522645344589445 3.3291365328865092 0.0010688046086869362 -0.18247372120546715
decision_type=2 2 2 2 2 2 2 2 2 2 2 2 2 2 2 2 2 2 2 2 2 2 2 2 2 2 2 2 2 2
left_child=1 29 -3 5 8 6 11 20 9 10 -5 12 -4 -2 16 -16 -15 -9 -11 -19 21 23 28 26 -25 -26 -8 -23 -22 -1
right_child=13 2 3 4 -6 -7 7 17 -10 18 -12 -13 -14 14 15 -17 -18 19 -20 -21 22 27 -24 24 25 -27 -28 -29 -30 -31
leaf_value=-0.0039809208972996571 -0.069049887120822884 -0.031605843003714891 -0.065469024886262717 0.053168942429820967 0.06634718948348893 0.046999683905072809 -0.024636004965282222 -0.063408352341828858 -0.034514137760108997 -0.037717895415583236 -0.086348786375209235 0.065769904901362239 0.057117692264030823 -0.014096676751426233 0.23231118938383333 -0.0075042689097876737 -0.070793892936503872 0.035521126870418356 0.018361880354925121 -0.075662372078303425 0.080499363126805307 0.073401664669587044 -0.014397904788209346 -0.028661972206747627 -0.030172576079303209 0.068075769718811061 0.092834690314599261 -0.046696458450296269 -0.043228703962744558 -0.046146693409994444
leaf_weight=1061.5543010234833 67.998541623353958 75.466717883944511 59.722579300403595 84.662681207060814 37.775173142552376 271.74322815239429 14.353339150547979 34.807816043496132 114.14627076685429 84.356678143143654 8.0335748344659788 14.200223445892332 13.942421019077299 171.86842182278633 7.9220493137836447 58.834371626377106 69.933890596032143 53.096003293991089 76.618047341704369 12.517477735877035 123.42611527442932 100.89786805212498 41.364434838294983 162.28191360831261 37.121190041303635 61.959774225950241 35.089706599712372 10.405506283044813 9.0707406401634199 70.428500354290009
leaf_count=3537 321 269 207 249 111 779 50 112 413 256 27 39 38 659 26 230 299 152 225 38 345 286 117 546 109 171 103 30 25 272
internal_value=0 0.00647461 0.0161067 0.0185703 0.00147795 0.0251352 0.0175592 0.0229046 -0.00518418 0.00801365 0.0410776 -0.024807 -0.0422673 -0.0283359 -0.0193636 0.0209549 -0.0304946 -0.0126286 -0.011026 0.01431 0.0288919 0.0195937 0.0514666 0.00434525 -0.00594347 0.0312665 0.0587329 0.062174 0.0720289 -0.00660435
internal_weight=0 2669.04 1537.06 1461.59 405.592 1056 784.257 696.392 367.817 253.671 92.6963 87.8652 73.665 376.557 308.559 66.7564 241.802 100.421 160.975 65.6135 595.971 422.109 173.861 310.806 261.363 99.081 49.443 111.303 132.497 1131.98
internal_count=10041 8506 4697 4428 1281 3147 2368 2084 1170 757 276 284 245 1535 1214 256 958 302 481 190 1782 1295 487 979 826 280 153 316 370 3809
is_linear=0
shrinkage=0.1


Tree=28
num_leaves=31
num_cat=0
split_feature=4 2 2 1 3 9 1 9 2 0 2 3 1 1 3 3 5 6 7 0 6 1 0 4 4 1 7 0 3 3
split_gain=194.201 80.9693 48.5829 42.0192 38.2847 50.6232 35.0655 32.1891 86.981 35.4241 31.0441 35.5195 26.9714 25.6052 23.5111 27.8235 28.6208 22.2179 21.3241 32.1861 29.414 25.5556 20.0343 19.5923 24.469 23.7575 19.3601 18.2152 20.5338 19.2099
threshold=-0.36442409290745897 0.0010688046086869362 -0.76565770634815589 1.0000000180025095e-35 -0.14297512902346859 0.50739629397191655 -0.30303281572710894 0.99524735170450629 -0.023620262249275346 -0.22785526067113207 -0.69972075251277555 -0.32159060300386894 -0.28155569313527512 -0.23531879398383168 -0.39689533194190435 -0.36954874466355397 -0.39841792061486436 0.046755933280265845 -0.31706214292345958 -1.0937973820564493 -0.28332175453062763 -0.30086324764777844 -0.88251802822430525 0.45051011783166678 -0.21022996376812744 -0.29359201573018434 -0.2056384613731124 -0.445295970545942 -0.39289470674146854 0.068917859229712705
decision_type=2 2 2 2 2 2 2 2 2 2 2 2 2 2 2 2 2 2 2 2 2 2 2 2 2 2 2 2 2 2
left_child=1 2 -1 6 5 13 -4 18 10 14 11 -9 -13 17 -10 -16 -17 23 19 -8 22 -22 -20 24 25 -2 -27 28 -5 -30
right_child=4 -3 3 27 -6 -7 7 8 9 -11 -12 12 -14 -15 15 16 -18 -19 20 -21 21 -23 -24 -25 -26 26 -28 -29 29 -31
leaf_value=-0.049665019951832146 -0.059783530661286013 -0.080294980601093857 -0.093550601295595434 -0.089167963333354722 -0.067405175681291687 -0.077007591697869415 -0.10916717820068385 -0.089094430288201201 -0.10963731331865895 -0.083419565883561947 -0.061902035260776027 -0.075819084773741066 0.085419265592035956 -0.078840339630263157 0.090803234442590031 0.064058657177627182 -0.070135736045292538 -0.077701545167716546 0.072656572296407915 0.05168158782990219 -0.092503908638634891 0.034107527068120945 -0.09119931832859568 -0.098184341522098303 0.072903458832948201 0.057903003908118179 -0.085619505586725125 -0.076370028119618502 0.034288647035631233 -0.080559138712262349
